//Numpy array shape [125, 1]
//Min -0.250000000000
//Max 0.250000000000
//Number of zeros 24

#ifndef W12_H_
#define W12_H_

#ifndef __SYNTHESIS__
weight12_t w12[125];
#else
weight12_t w12[125] = {0.0000, 0.1250, -0.0625, 0.0000, -0.0625, -0.0625, -0.2500, 0.0000, -0.2500, 0.1250, -0.2500, 0.1250, 0.1875, -0.0625, -0.1250, -0.2500, 0.0625, 0.1250, 0.0000, 0.1875, -0.0625, 0.0000, -0.0625, 0.1875, 0.0625, -0.0625, 0.1250, -0.0625, 0.0000, -0.1250, -0.1875, 0.2500, 0.1875, -0.0625, 0.1875, -0.0625, -0.1875, 0.1250, 0.1875, 0.1875, 0.0625, -0.1250, -0.0625, 0.1875, 0.0625, -0.1250, -0.0625, 0.0000, 0.0625, 0.0000, -0.1250, 0.0000, 0.0000, -0.0625, 0.1250, 0.2500, 0.1250, -0.0625, -0.0625, 0.0000, -0.1250, -0.1250, 0.0000, -0.0625, -0.1250, 0.1875, 0.1875, -0.0625, -0.1250, -0.2500, 0.0000, 0.1250, 0.0000, 0.0000, 0.2500, 0.0000, -0.2500, 0.0625, 0.0625, -0.0625, -0.0625, 0.0000, -0.1875, -0.0625, 0.0000, 0.0000, 0.0625, 0.0000, 0.0625, -0.2500, 0.0625, 0.0000, -0.0625, -0.0625, 0.2500, -0.1875, -0.1250, 0.1250, 0.0000, -0.0625, -0.0625, -0.1250, -0.1250, 0.1250, -0.1250, 0.0000, 0.1250, -0.0625, 0.2500, -0.0625, 0.1250, 0.1250, -0.0625, -0.1875, 0.1875, -0.0625, 0.0625, 0.1250, 0.1875, -0.0625, -0.0625, 0.1250, 0.0625, -0.0625, 0.0000};

#endif

#endif
