//Numpy array shape [5, 5, 2, 4]
//Min -0.437500000000
//Max 0.375000000000
//Number of zeros 20

#ifndef W5_H_
#define W5_H_

#ifndef __SYNTHESIS__
weight5_t w5[200];
#else
weight5_t w5[200] = {0.1250, 0.1875, 0.1250, -0.1875, 0.1250, -0.2500, 0.0000, -0.0625, -0.0625, 0.0625, 0.1250, 0.0000, 0.2500, 0.0000, -0.1875, -0.2500, 0.1250, 0.1250, -0.1250, 0.1250, 0.0625, 0.2500, 0.0625, -0.0625, 0.1250, -0.3125, -0.3750, 0.3125, -0.2500, -0.0625, 0.1875, 0.0000, 0.2500, 0.3125, -0.4375, 0.1250, 0.1250, -0.0625, 0.1875, 0.0625, 0.1250, 0.0625, -0.1250, -0.2500, -0.1875, 0.1875, 0.1250, -0.2500, -0.1875, 0.0000, 0.0000, 0.0625, 0.0625, 0.1250, -0.1250, 0.0000, -0.0625, -0.1250, 0.0625, 0.1875, -0.3125, -0.1875, 0.1250, -0.3750, 0.0625, -0.4375, -0.1250, -0.1875, -0.1250, 0.0625, 0.3125, 0.0625, 0.2500, -0.0625, 0.1875, -0.1250, -0.1875, 0.3125, 0.3125, -0.3125, -0.0625, 0.1875, 0.2500, -0.1250, -0.2500, -0.1250, -0.1250, -0.1875, -0.0625, 0.1250, -0.0625, -0.0625, 0.1250, -0.1250, -0.3125, 0.3125, 0.1875, 0.0625, 0.1875, 0.0625, 0.3125, 0.0000, -0.0625, 0.0000, -0.1875, 0.1875, 0.2500, 0.0625, -0.4375, -0.2500, 0.0000, 0.1875, 0.1250, -0.1875, 0.1875, 0.3750, 0.0625, 0.3125, -0.2500, 0.1250, 0.0625, -0.0625, 0.0625, 0.0625, -0.3125, 0.1250, 0.0625, -0.3125, -0.3125, -0.1250, 0.1875, 0.1250, 0.0000, 0.2500, 0.0625, 0.1875, 0.2500, -0.2500, -0.1250, 0.1875, 0.1875, -0.1250, 0.0000, 0.3125, 0.0625, 0.0000, 0.3750, 0.0625, 0.0000, -0.2500, -0.1875, 0.3125, -0.0625, 0.0000, -0.2500, -0.3750, 0.0625, -0.1250, -0.0625, 0.1250, 0.0000, -0.0625, 0.1250, 0.1250, 0.0000, -0.0625, 0.0625, 0.0000, 0.0625, 0.1875, 0.1875, 0.1250, 0.0000, 0.2500, -0.2500, 0.2500, 0.3125, -0.2500, -0.1250, -0.2500, 0.1250, -0.0625, -0.0625, 0.0000, 0.3125, -0.3125, 0.3750, -0.1875, -0.2500, 0.1250, 0.2500, 0.0625, 0.1875, 0.2500, -0.1875, 0.3125, 0.3125, 0.1250, 0.0625, 0.1875};

#endif

#endif
