//Numpy array shape [5, 5, 4, 5]
//Min -0.312500000000
//Max 0.312500000000
//Number of zeros 70

#ifndef W8_H_
#define W8_H_

#ifndef __SYNTHESIS__
weight8_t w8[500];
#else
weight8_t w8[500] = {-0.0625, -0.3125, 0.1250, 0.0625, -0.0625, -0.1875, 0.0625, -0.1875, 0.0625, 0.1875, -0.0625, -0.1250, 0.1250, 0.0000, 0.2500, 0.0000, 0.0625, 0.1875, -0.0625, 0.0625, -0.1250, -0.2500, 0.0000, 0.0625, 0.3125, -0.2500, 0.0625, 0.0000, -0.0625, 0.0000, -0.0625, -0.0625, -0.2500, 0.0000, -0.1875, 0.1875, 0.0000, 0.0000, -0.1875, 0.2500, 0.1250, 0.3125, 0.0625, -0.2500, 0.1875, -0.0625, -0.0625, 0.0000, 0.1875, 0.0000, -0.0625, -0.2500, 0.1875, -0.0625, 0.2500, 0.2500, 0.0625, 0.3125, -0.1250, -0.0625, 0.0000, -0.1875, 0.0625, 0.0625, -0.0625, -0.1250, 0.0625, 0.0625, -0.0625, -0.0625, 0.0625, -0.1250, -0.3125, -0.1875, 0.1875, 0.1250, -0.2500, -0.0625, -0.0625, -0.1250, -0.1250, 0.1875, -0.1875, -0.1250, -0.0625, 0.0625, -0.0625, 0.1250, 0.1875, -0.0625, -0.1875, 0.2500, 0.1875, 0.1250, 0.1250, 0.1875, 0.1250, -0.1250, -0.0625, -0.0625, -0.1875, 0.0000, -0.0625, -0.1250, 0.0625, 0.3125, -0.0625, 0.0625, 0.1250, 0.0000, 0.0625, -0.1250, 0.2500, -0.0625, 0.1250, -0.0625, -0.2500, -0.3125, -0.1875, 0.0625, -0.1875, 0.0625, 0.1250, -0.1875, 0.1250, 0.1250, 0.1875, -0.1250, -0.1875, 0.0625, -0.1875, 0.0625, -0.0625, 0.1250, 0.1875, 0.1250, -0.1250, -0.0625, 0.0625, -0.1875, 0.0000, 0.0625, 0.0625, 0.0000, -0.1250, -0.2500, -0.1875, 0.1250, -0.2500, -0.1875, 0.0000, -0.0625, 0.1250, 0.0000, 0.1250, 0.3125, -0.0625, -0.1250, -0.3125, -0.1875, 0.1250, 0.0625, -0.1250, 0.2500, 0.0625, 0.1250, -0.1875, -0.0625, 0.1875, -0.0625, 0.3125, 0.1250, -0.3125, 0.1250, -0.1250, 0.0625, 0.0625, 0.2500, -0.1875, 0.3125, -0.1875, 0.1250, 0.1875, -0.1250, -0.2500, -0.1250, -0.1875, 0.0000, -0.1875, -0.0625, -0.1250, 0.2500, 0.0000, 0.0625, 0.0000, 0.0625, -0.1875, 0.0000, -0.1875, -0.0625, -0.3125, 0.0000, -0.2500, -0.2500, 0.0625, 0.0000, 0.0625, -0.0625, 0.1875, 0.0625, 0.0000, -0.1250, 0.2500, -0.1875, -0.1875, -0.0625, -0.0625, 0.0000, 0.0000, 0.0625, 0.0000, -0.0625, 0.2500, 0.0000, 0.2500, 0.0000, -0.0625, -0.1250, -0.0625, 0.1875, 0.0625, 0.0000, -0.1250, -0.3125, -0.2500, -0.2500, -0.0625, -0.3125, 0.0625, 0.1250, -0.1875, 0.0000, -0.1250, 0.0625, 0.1250, 0.1250, -0.3125, 0.0000, 0.0000, 0.0000, 0.0625, -0.0625, 0.1250, 0.0625, -0.1875, 0.1250, -0.0625, -0.1250, 0.0000, -0.3125, 0.0625, -0.0625, 0.0000, 0.0000, 0.0625, -0.2500, -0.0625, 0.1875, 0.3125, 0.0625, 0.0000, 0.3125, -0.1250, -0.2500, -0.1250, -0.1250, -0.0625, -0.1250, -0.1875, -0.0625, 0.3125, -0.0625, -0.0625, -0.1250, 0.3125, 0.0000, -0.1250, -0.3125, 0.0625, 0.0625, 0.0625, -0.1250, 0.1250, 0.1875, 0.0625, 0.1250, 0.1875, 0.2500, 0.0625, 0.1875, -0.0625, 0.0000, 0.2500, 0.2500, 0.0000, -0.0625, 0.1250, -0.1875, -0.1250, -0.0625, -0.1250, 0.0625, 0.1875, -0.1875, -0.0625, -0.0625, 0.2500, 0.1250, -0.0625, -0.0625, 0.1875, 0.1250, 0.0000, 0.0625, -0.1250, 0.1250, 0.0000, 0.1250, 0.1250, 0.1250, -0.1250, 0.1875, -0.1250, -0.1250, -0.1250, 0.0625, -0.1250, 0.1875, 0.0625, 0.0625, 0.3125, 0.0625, 0.0000, 0.0000, -0.0625, -0.1250, 0.1875, 0.0625, -0.0625, 0.1875, -0.0625, -0.3125, -0.1250, 0.0625, 0.2500, 0.1875, 0.0625, -0.0625, 0.1250, 0.1875, -0.1250, -0.1875, 0.0000, 0.0000, -0.1875, 0.1250, 0.1250, 0.1250, -0.1250, 0.1875, -0.0625, -0.1250, -0.1875, -0.1875, -0.1250, 0.1250, 0.0000, -0.3125, 0.2500, 0.0625, -0.0625, 0.0625, -0.1875, -0.1250, -0.1875, -0.2500, -0.0625, 0.1875, 0.2500, -0.1875, 0.0000, 0.1875, 0.0625, 0.0000, 0.1250, 0.1250, -0.1250, 0.0000, -0.1250, 0.0000, -0.1875, 0.0000, 0.0000, 0.0625, 0.1250, -0.0625, -0.1250, 0.2500, 0.0625, -0.1250, 0.1250, 0.0625, 0.1875, 0.0625, 0.0625, -0.1250, 0.1250, -0.0625, -0.1250, -0.0625, -0.1250, 0.0000, 0.1250, 0.0000, -0.1875, 0.1875, -0.0625, 0.1250, -0.1250, 0.0000, -0.0625, 0.1875, -0.1250, 0.0000, -0.2500, -0.0625, -0.2500, -0.0625, 0.0625, 0.0000, -0.1250, 0.0625, 0.2500, 0.1250, 0.1875, 0.0625, 0.1250, 0.0625, 0.0000, 0.1250, 0.1250, -0.1250, -0.1875, 0.1875, 0.1875, 0.0000, -0.2500, 0.0625, 0.0000, 0.0000, 0.1250, 0.0625, 0.1875, 0.1250, -0.1250, 0.1250, -0.0625, -0.0625, -0.0625, 0.0625, 0.1250, 0.1875, 0.0000, 0.2500, -0.0625, 0.0000, -0.0625, 0.0000, 0.0000, 0.1250, -0.1250, 0.1875, -0.0625, -0.0625, 0.1250, 0.1250, 0.2500, -0.1250, -0.2500, 0.0625, -0.1875, 0.0000, 0.1875, 0.0000, 0.1875, 0.2500, 0.0000, 0.1250, -0.1250, 0.1250};

#endif

#endif
