//Numpy array shape [3, 3, 5, 6]
//Min -0.437500000000
//Max 0.437500000000
//Number of zeros 42

#ifndef W12_H_
#define W12_H_

#ifndef __SYNTHESIS__
weight12_t w12[270];
#else
weight12_t w12[270] = {-0.1875, -0.1250, 0.1250, 0.1250, 0.0000, -0.1875, -0.1250, -0.3125, -0.3125, 0.1875, 0.0000, 0.1875, 0.2500, -0.2500, -0.3125, 0.2500, -0.3750, 0.3125, -0.1250, -0.1250, 0.0000, 0.0000, 0.1875, 0.0000, -0.4375, 0.1875, -0.0625, -0.0625, 0.3750, -0.0625, -0.3750, -0.1875, -0.1875, 0.0625, -0.3125, 0.1250, 0.0000, 0.0625, -0.1875, 0.1875, 0.0625, 0.3125, 0.2500, -0.1250, 0.4375, -0.0625, -0.1250, -0.3750, 0.0625, -0.0625, -0.1250, -0.3750, 0.0000, 0.1250, 0.0000, 0.1250, 0.3125, -0.2500, -0.0625, 0.0000, -0.2500, 0.0000, -0.2500, -0.3125, 0.0625, 0.1875, 0.0000, -0.1250, -0.3125, -0.0625, -0.2500, -0.2500, 0.0625, 0.1875, -0.4375, -0.1875, -0.0625, 0.3750, 0.0000, 0.3750, -0.3125, 0.0625, -0.1875, 0.3125, -0.3125, 0.3750, 0.0000, -0.3125, -0.1875, -0.1875, -0.2500, -0.0625, 0.0000, 0.1875, -0.2500, -0.2500, 0.0625, 0.2500, -0.1250, 0.1250, -0.3125, -0.1250, 0.3125, -0.1250, -0.4375, -0.1875, -0.0625, -0.0625, 0.1250, 0.0625, -0.1875, -0.1875, -0.3125, -0.3125, 0.3125, 0.0000, 0.2500, -0.0625, 0.1250, 0.1250, 0.0625, -0.1250, -0.0625, 0.0000, -0.0625, -0.1250, 0.0625, 0.0625, 0.1875, 0.2500, 0.0625, 0.2500, 0.1250, -0.2500, 0.0000, 0.0000, 0.0000, -0.0625, -0.1875, -0.0625, -0.1250, -0.1250, 0.0000, 0.0625, 0.0000, -0.4375, -0.2500, 0.0000, 0.0000, 0.0625, -0.0625, -0.2500, 0.3750, -0.1250, -0.2500, -0.1875, -0.3125, -0.3125, -0.1875, -0.1250, -0.1875, 0.0000, 0.0000, -0.0625, 0.0000, -0.2500, 0.2500, 0.0000, -0.1875, 0.1250, -0.0625, 0.0000, -0.3750, -0.1875, -0.1875, 0.1250, 0.3750, -0.0625, -0.1250, 0.2500, -0.1250, 0.0625, 0.0000, -0.3125, -0.4375, -0.1250, 0.0625, -0.1250, -0.4375, -0.2500, 0.1250, 0.0625, -0.0625, 0.1250, 0.3125, 0.1875, -0.4375, 0.1875, 0.3125, 0.0000, -0.1875, 0.2500, -0.0625, 0.2500, 0.0000, 0.2500, 0.0000, 0.3125, 0.0000, -0.1250, 0.0625, -0.1875, -0.1875, -0.1875, 0.3125, 0.0000, -0.3125, 0.4375, -0.1875, 0.0625, -0.1875, 0.1875, -0.4375, -0.1250, 0.0000, -0.0625, -0.2500, 0.0000, -0.1875, 0.1250, 0.3125, 0.1875, 0.0000, -0.2500, 0.3125, 0.1250, -0.3125, 0.3125, 0.2500, -0.1875, 0.3750, 0.2500, 0.0625, -0.1875, -0.0625, 0.0625, -0.1875, 0.0000, -0.2500, -0.1875, -0.1875, 0.0000, 0.0000, -0.2500, 0.4375, 0.0625, -0.1250, 0.0000, -0.1250, -0.1875, -0.1875, 0.0000, 0.1250, -0.4375, -0.1875, 0.3750, 0.3125, -0.1875, -0.1875, 0.1250};

#endif

#endif
