//Numpy array shape [5, 5, 4, 5]
//Min -0.312500000000
//Max 0.312500000000
//Number of zeros 72

#ifndef W9_H_
#define W9_H_

#ifndef __SYNTHESIS__
weight9_t w9[500];
#else
weight9_t w9[500] = {0.1250, -0.1250, 0.0625, 0.1875, -0.2500, -0.3125, -0.1250, 0.0000, 0.0000, -0.2500, 0.1875, -0.2500, 0.0625, -0.1875, -0.0625, 0.1250, 0.0000, -0.2500, -0.0625, -0.0625, 0.0625, 0.0000, 0.0625, -0.0625, -0.0625, 0.1250, 0.0625, 0.0625, 0.2500, 0.0625, -0.0625, 0.1875, 0.0625, 0.0000, -0.0625, 0.0625, 0.1875, -0.0625, -0.1250, -0.0625, 0.0625, -0.3125, -0.0625, 0.0000, -0.0625, -0.1250, 0.1875, -0.0625, -0.1250, -0.0625, -0.0625, 0.1250, 0.2500, 0.1875, 0.3125, -0.0625, 0.1250, 0.2500, -0.1875, 0.1875, -0.0625, 0.0625, -0.1250, 0.0000, -0.0625, 0.1250, -0.0625, -0.1875, -0.1250, -0.0625, 0.1875, 0.1875, 0.0000, 0.1250, -0.0625, -0.2500, 0.1250, 0.0000, -0.0625, 0.1250, 0.1250, 0.3125, -0.1250, -0.2500, 0.2500, 0.0000, -0.1250, -0.1875, 0.1250, -0.0625, -0.3125, 0.1250, -0.1250, 0.2500, -0.0625, 0.1250, 0.0625, -0.1250, 0.2500, 0.0625, -0.1250, 0.0000, 0.1250, 0.0000, -0.1250, -0.0625, -0.0625, 0.3125, 0.0000, -0.2500, -0.1250, 0.1875, 0.0625, -0.1875, -0.0625, 0.1875, 0.1250, 0.1875, -0.2500, 0.1250, 0.0625, 0.0625, 0.0000, -0.0625, 0.0625, -0.2500, 0.2500, 0.1250, 0.0000, -0.0625, -0.1875, 0.1875, -0.0625, -0.2500, 0.2500, -0.0625, 0.1875, 0.1875, 0.1875, 0.2500, 0.0000, 0.0000, 0.1250, 0.0000, -0.0625, 0.1250, 0.1250, 0.2500, -0.1875, 0.1250, -0.0625, -0.1250, 0.1250, 0.0000, 0.1250, -0.1250, 0.0625, 0.0625, -0.1875, 0.0000, 0.0625, 0.0625, 0.0625, 0.0625, -0.1875, 0.1250, 0.1875, 0.0625, -0.0625, 0.0625, 0.0000, -0.0625, -0.1250, 0.0625, 0.1250, 0.0000, 0.0625, -0.0625, -0.1250, 0.0000, 0.0625, -0.0625, 0.0000, -0.1250, -0.1250, 0.0000, 0.1250, -0.1875, 0.0625, 0.2500, 0.0625, 0.1875, 0.2500, -0.1250, 0.1875, 0.1250, 0.0000, 0.0625, 0.1875, -0.1875, 0.1250, -0.1875, 0.1250, 0.1875, -0.0625, 0.0000, -0.1250, 0.0625, 0.1875, 0.3125, -0.1250, 0.0625, 0.0625, 0.1875, 0.0625, -0.3125, -0.1875, 0.0625, -0.0625, 0.0625, 0.1250, 0.0000, -0.1250, -0.0625, 0.2500, 0.0625, 0.0625, 0.1875, -0.1250, -0.1875, -0.0625, -0.1875, 0.0625, -0.1875, 0.0625, -0.1875, 0.0000, 0.0625, -0.3125, -0.1250, -0.1250, 0.0625, -0.0625, 0.1875, 0.0000, 0.1875, -0.0625, 0.0625, -0.0625, -0.0625, 0.0625, -0.1250, 0.1250, 0.1875, -0.1250, 0.0625, -0.3125, -0.0625, 0.0000, -0.0625, -0.3125, -0.1875, -0.0625, -0.3125, 0.1875, -0.1250, 0.0625, 0.1875, 0.0625, -0.0625, 0.0625, -0.0625, 0.1250, -0.0625, -0.0625, -0.0625, -0.1250, 0.0625, 0.1250, -0.1875, -0.1250, 0.0625, 0.0625, 0.1875, -0.0625, 0.0625, 0.0625, -0.0625, -0.1875, 0.0000, 0.0625, -0.1250, 0.0000, 0.0625, 0.1250, 0.0000, -0.1250, 0.0625, 0.1250, 0.1875, 0.0000, -0.0625, 0.0000, 0.0000, 0.1875, 0.0625, 0.1250, 0.0625, 0.0625, -0.0625, 0.0000, -0.1250, -0.0625, 0.1875, 0.1250, 0.1875, 0.0000, -0.1875, -0.1250, -0.1250, -0.1250, -0.0625, 0.0000, 0.0000, 0.1875, 0.1250, 0.1875, 0.0625, 0.0000, 0.0625, -0.0625, 0.0000, -0.2500, 0.0000, 0.0000, -0.0625, 0.0625, 0.1875, 0.1250, 0.0000, -0.0625, 0.1875, 0.1250, -0.1250, 0.0000, 0.0000, -0.0625, 0.3125, 0.0000, -0.1875, -0.1875, 0.0625, 0.0000, 0.1250, -0.1250, 0.2500, -0.1250, 0.1250, -0.2500, 0.0000, 0.0000, 0.1250, -0.2500, 0.0000, 0.1250, 0.1875, 0.0625, 0.0000, 0.1875, 0.2500, -0.1875, 0.1250, -0.1250, -0.2500, 0.1250, -0.1875, 0.1250, -0.0625, -0.0625, -0.3125, 0.0000, 0.0625, -0.0625, -0.1250, 0.0625, 0.0000, -0.0625, -0.1875, 0.2500, 0.2500, -0.1875, 0.1875, -0.0625, 0.0625, -0.1875, 0.1250, -0.0625, 0.2500, -0.1250, 0.0625, -0.1250, 0.1875, 0.1250, -0.0625, -0.0625, -0.2500, 0.1875, 0.1250, -0.1250, 0.0000, 0.0625, -0.1875, -0.0625, 0.1875, -0.2500, 0.0000, 0.0000, -0.2500, -0.0625, 0.0625, 0.0000, -0.0625, 0.0625, -0.1250, 0.0000, 0.1250, -0.1250, -0.1250, 0.0000, -0.0625, 0.0625, 0.3125, -0.2500, -0.0625, 0.0625, 0.0625, 0.0000, 0.0000, -0.1875, -0.0625, -0.1875, -0.1250, 0.1250, 0.0000, 0.0625, 0.0625, 0.1250, -0.1250, -0.0625, 0.1875, -0.1250, 0.0000, 0.0625, -0.2500, 0.0000, 0.2500, 0.0625, -0.1875, -0.0625, 0.0625, 0.0000, -0.0625, 0.2500, 0.0000, -0.1875, 0.1250, -0.0625, 0.0625, 0.0625, 0.2500, 0.1250, -0.0625, 0.0625, -0.0625, 0.2500, -0.0625, 0.1250, -0.1875, -0.1250, -0.0625, 0.0000, 0.0000, -0.1875, -0.1875, 0.0625, -0.1250, 0.0625, -0.0625, -0.1875, 0.0000, -0.1250, 0.1250, 0.0625, -0.0625, -0.1875, -0.0625, -0.0625, -0.1250, -0.0625, -0.0625};

#endif

#endif
