//Numpy array shape [125, 10]
//Min -0.312500000000
//Max 0.312500000000
//Number of zeros 231

#ifndef W13_H_
#define W13_H_

#ifndef __SYNTHESIS__
weight13_t w13[1250];
#else
weight13_t w13[1250] = {-0.2500, -0.0625, 0.0000, 0.1250, 0.1875, -0.0625, 0.1875, -0.0625, 0.1250, 0.2500, 0.0625, -0.2500, -0.0625, -0.1250, 0.0000, 0.1250, 0.1875, 0.1875, -0.0625, 0.1875, 0.0625, 0.0000, 0.0000, -0.2500, 0.0625, -0.0625, -0.0625, -0.2500, 0.1250, 0.1875, -0.1250, 0.1875, -0.1875, -0.1250, 0.0625, 0.1875, 0.1875, 0.1875, 0.1250, -0.0625, 0.0625, -0.1250, -0.1250, 0.0625, 0.0000, -0.0625, 0.0000, -0.1875, 0.0000, 0.0625, -0.1250, -0.0625, -0.2500, 0.0000, -0.1250, 0.1875, -0.1250, 0.0625, -0.1875, 0.1875, 0.0000, -0.0625, -0.0625, 0.1250, 0.1250, -0.0625, -0.0625, -0.1250, -0.1250, 0.0000, -0.0625, -0.1250, 0.1250, 0.1250, 0.1250, 0.0625, -0.1250, -0.1250, 0.0000, -0.1250, -0.1250, -0.1250, 0.0625, 0.2500, 0.0000, 0.1875, -0.1875, -0.0625, 0.1250, 0.1250, -0.1250, -0.1250, -0.1250, -0.1250, -0.1250, 0.0625, 0.0000, -0.0625, -0.0625, 0.0000, 0.1875, -0.0625, -0.0625, 0.2500, -0.0625, 0.1875, 0.0625, 0.0625, 0.0000, -0.0625, 0.0000, -0.0625, 0.0000, -0.1250, 0.1875, 0.2500, 0.0625, 0.1875, 0.1875, 0.2500, 0.0625, -0.1875, -0.0625, 0.0625, 0.1250, 0.0000, 0.1875, 0.1875, -0.1875, 0.0625, -0.1250, -0.2500, 0.1250, 0.1875, -0.1250, -0.2500, 0.2500, 0.0000, 0.0000, -0.1250, 0.0000, -0.1250, -0.0625, -0.0625, -0.1250, 0.0000, 0.1875, 0.0000, 0.0000, 0.0625, 0.1875, -0.1250, -0.2500, -0.0625, 0.2500, -0.1875, -0.1250, 0.0625, -0.1250, 0.1250, 0.0625, 0.0000, 0.0625, -0.0625, -0.0625, 0.0625, -0.1250, -0.0625, 0.0000, -0.1875, -0.1250, 0.0000, -0.2500, 0.1250, 0.0000, 0.0000, 0.0625, 0.0625, -0.0625, 0.0625, -0.2500, -0.0625, -0.0625, -0.2500, -0.1250, -0.0625, 0.0625, -0.1875, -0.1875, 0.1250, 0.0000, 0.2500, 0.0625, 0.0000, 0.0000, 0.0000, 0.0000, -0.0625, 0.1250, 0.1250, -0.0625, -0.0625, -0.1875, -0.0625, -0.1875, 0.3125, 0.0625, 0.0000, -0.1250, -0.1875, 0.0625, -0.1250, 0.0000, -0.2500, 0.1875, 0.1250, -0.1250, -0.1250, -0.0625, 0.0625, -0.0625, 0.0000, -0.1875, 0.0000, 0.0000, 0.0625, -0.0625, 0.0000, 0.0625, 0.0625, 0.0625, 0.0625, 0.1875, 0.0625, 0.0625, 0.1250, -0.0625, -0.1875, -0.0625, 0.1250, 0.0625, 0.0000, 0.1250, -0.0625, 0.0625, -0.1875, -0.1250, -0.0625, -0.0625, 0.1250, -0.0625, 0.0625, -0.0625, -0.0625, -0.1250, 0.0000, -0.0625, 0.0625, 0.1250, 0.0000, 0.0000, 0.1875, 0.0000, 0.0625, 0.0000, 0.1250, -0.0625, 0.2500, -0.1250, -0.1875, 0.0000, 0.0000, 0.0625, -0.0625, -0.0625, 0.1875, -0.0625, 0.0625, -0.1875, -0.0625, -0.0625, 0.1250, -0.2500, 0.1250, -0.1250, 0.0625, 0.0000, 0.0000, 0.0625, 0.2500, 0.1875, 0.0000, 0.0000, 0.1250, 0.0625, 0.0625, -0.0625, 0.0625, -0.0625, 0.0000, 0.0000, -0.1875, 0.0000, -0.1250, -0.2500, -0.0625, -0.2500, 0.0625, 0.1875, 0.0000, 0.2500, -0.0625, 0.0625, -0.0625, -0.2500, 0.0625, 0.0000, -0.0625, 0.1250, 0.2500, -0.1875, 0.1250, 0.0000, 0.0625, -0.2500, 0.0000, 0.2500, 0.0000, -0.1250, 0.0625, 0.0000, 0.0625, 0.0000, 0.0000, 0.0625, -0.0625, 0.0000, -0.1250, -0.1875, 0.1250, 0.0000, 0.1250, -0.0625, 0.2500, 0.1250, -0.1250, 0.0000, -0.1875, 0.2500, 0.0000, 0.0000, 0.0625, -0.0625, -0.2500, -0.0625, 0.0000, -0.2500, 0.0625, -0.1250, 0.0000, 0.0625, 0.0000, 0.1250, 0.0625, 0.1875, 0.1250, 0.1250, -0.1250, -0.1250, 0.1250, -0.1875, -0.0625, -0.0625, 0.1250, 0.1250, -0.0625, 0.0000, 0.1250, 0.0625, 0.1875, -0.1875, 0.0000, 0.0000, -0.1250, -0.1250, -0.1875, 0.0625, -0.2500, 0.1875, 0.0625, 0.1875, 0.0000, 0.0000, 0.0000, -0.1250, 0.0625, 0.0000, 0.2500, -0.1250, 0.0000, 0.1250, -0.0625, -0.0625, 0.0000, 0.1250, -0.1250, -0.0625, 0.0000, 0.0000, 0.0000, 0.1875, 0.0000, -0.1875, -0.2500, -0.0625, 0.2500, -0.1875, 0.1250, 0.0625, 0.0625, 0.0625, 0.1250, -0.1875, -0.1250, 0.1875, -0.0625, 0.1250, -0.0625, -0.1250, -0.1250, -0.1250, -0.1250, 0.1250, -0.1250, 0.0625, 0.0000, 0.0625, 0.0000, 0.2500, -0.0625, -0.0625, 0.1250, 0.0625, 0.0625, -0.0625, -0.1875, 0.0625, 0.0000, 0.0000, -0.2500, 0.0625, -0.0625, -0.0625, 0.2500, -0.0625, 0.1250, 0.0625, -0.1250, 0.1250, 0.1875, -0.0625, 0.1875, -0.0625, 0.1250, 0.0000, 0.1875, -0.1250, 0.1875, 0.1250, -0.0625, -0.0625, 0.0000, 0.1250, 0.0000, -0.1250, -0.1875, 0.0000, 0.0625, 0.0000, 0.1875, 0.1875, 0.0000, 0.1250, 0.1875, 0.0625, -0.0625, -0.0625, 0.1875, 0.0625, 0.0000, 0.2500, -0.0625, -0.0625, 0.1250, -0.0625, -0.1250, -0.1250, -0.2500, 0.0625, 0.0625, 0.0000, -0.0625, 0.1875, 0.1875, 0.1875, 0.0625, 0.0000, -0.1250, -0.0625, 0.1250, 0.0000, -0.0625, 0.0000, 0.0000, 0.1875, 0.1250, 0.0625, 0.2500, 0.1250, -0.2500, 0.0000, -0.1250, 0.1250, -0.1875, 0.2500, -0.1250, 0.0625, -0.1875, -0.1250, -0.0625, 0.0625, 0.0000, 0.1875, 0.1250, 0.1875, 0.0000, 0.1250, 0.1250, -0.1875, 0.1250, 0.0000, 0.0000, 0.0000, -0.0625, -0.1250, 0.0000, 0.0000, 0.1250, 0.1875, 0.0625, -0.2500, -0.1875, 0.0625, 0.0000, 0.1250, 0.0625, 0.0000, 0.1250, 0.0000, 0.0000, -0.1875, -0.0625, 0.1250, 0.1250, -0.0625, -0.1250, 0.2500, -0.1250, 0.0625, 0.0625, -0.1875, 0.0000, 0.2500, 0.0000, -0.1250, 0.0000, 0.1250, 0.0000, 0.0625, 0.1875, 0.0000, 0.0000, -0.0625, 0.0625, 0.0625, -0.1875, 0.1250, 0.0000, -0.1250, 0.2500, -0.1250, -0.1250, -0.1875, -0.1250, 0.1250, 0.0000, -0.1250, 0.0625, 0.0000, 0.0000, -0.1875, -0.0625, 0.1875, 0.0625, -0.0625, -0.1875, 0.0000, 0.0625, 0.0000, 0.1875, -0.1250, -0.0625, 0.0000, -0.0625, 0.1250, 0.1250, 0.1250, 0.1250, 0.0000, -0.1875, 0.1250, -0.0625, 0.0625, -0.1875, 0.2500, 0.1250, -0.1875, 0.1875, 0.0000, 0.1875, 0.0000, 0.0625, 0.0000, -0.0625, 0.1250, -0.0625, -0.1875, -0.1875, -0.0625, 0.1250, -0.0625, -0.1875, -0.0625, 0.2500, 0.2500, -0.1250, 0.0000, 0.0000, 0.0625, -0.1250, 0.1875, -0.2500, 0.1250, 0.0625, -0.1875, 0.1875, 0.0625, -0.2500, -0.1250, 0.0000, 0.0625, 0.0625, -0.0625, 0.2500, 0.0000, -0.1250, -0.2500, 0.1250, 0.1875, -0.1250, -0.0625, 0.1250, -0.2500, 0.2500, -0.1875, -0.1250, -0.1250, 0.2500, -0.0625, 0.0000, 0.1250, 0.0000, 0.0625, 0.0000, 0.0625, 0.0625, -0.0625, 0.1875, -0.1250, -0.2500, 0.1250, -0.3125, -0.3125, -0.1250, 0.1875, 0.1875, -0.3125, -0.1250, 0.1250, 0.1250, 0.0000, 0.1875, -0.1875, -0.0625, 0.0625, 0.0625, 0.3125, 0.1875, 0.0000, 0.0000, -0.2500, -0.1250, 0.0625, 0.0000, 0.0625, 0.0625, 0.0625, -0.1250, -0.0625, -0.1875, 0.2500, 0.0000, 0.0625, -0.1875, -0.1250, 0.1250, -0.1250, -0.2500, 0.0000, 0.0000, -0.0625, 0.1250, 0.0000, 0.0000, 0.1250, 0.0625, 0.1875, -0.1250, -0.0625, -0.0625, -0.2500, 0.0000, 0.1875, -0.0625, 0.0000, -0.2500, 0.0625, 0.1250, 0.0625, 0.0625, -0.0625, 0.0625, 0.0625, 0.0625, -0.0625, -0.1875, 0.0625, -0.1250, -0.2500, -0.1250, -0.0625, -0.1250, -0.1875, -0.1250, 0.0625, 0.0000, -0.0625, 0.0000, -0.1875, -0.0625, -0.0625, 0.0625, 0.0625, -0.2500, 0.0625, 0.0625, 0.0625, 0.0625, -0.1875, 0.0625, -0.0625, 0.0000, 0.0000, 0.0625, 0.0000, -0.1250, -0.0625, -0.0625, -0.0625, 0.0000, -0.1250, 0.1250, 0.0000, 0.0625, 0.0625, 0.0625, -0.0625, -0.1250, 0.2500, -0.0625, -0.1250, -0.0625, 0.1250, 0.3125, -0.1875, -0.0625, 0.0625, -0.0625, 0.0625, 0.0625, 0.1250, 0.0625, 0.0625, 0.1250, 0.0625, -0.1250, -0.1250, 0.0000, 0.0625, -0.1250, 0.3125, 0.1875, -0.0625, 0.1250, 0.1250, 0.1250, -0.1250, -0.0625, -0.1875, 0.2500, 0.1250, 0.0000, -0.1875, 0.0625, -0.2500, 0.0000, -0.2500, -0.1875, 0.1875, -0.1875, 0.0625, 0.1250, 0.0000, -0.0625, 0.0625, 0.1875, 0.0625, 0.1250, 0.1875, -0.0625, 0.0000, 0.0625, -0.2500, 0.1250, 0.0000, 0.0000, 0.1875, -0.2500, -0.1875, 0.0625, -0.0625, -0.2500, 0.1250, 0.0625, 0.0000, -0.1250, -0.1250, 0.0000, -0.0625, 0.0000, 0.0000, 0.0000, -0.2500, -0.2500, 0.1875, -0.1250, 0.0625, 0.2500, 0.1250, -0.0625, -0.2500, -0.0625, 0.0000, 0.0625, 0.1250, 0.0000, 0.1875, 0.1875, 0.0000, -0.0625, 0.0000, -0.1250, 0.1875, -0.1250, 0.0625, 0.1875, 0.1250, -0.0625, -0.0625, -0.1875, 0.1250, -0.1875, 0.0625, 0.2500, 0.0625, -0.1250, -0.0625, -0.1250, 0.2500, -0.1875, -0.0625, -0.1250, -0.0625, -0.1875, 0.1250, -0.0625, 0.0625, -0.1875, 0.0625, 0.1875, -0.1250, 0.0625, 0.0625, 0.1250, 0.0000, -0.0625, 0.0000, -0.0625, 0.1250, -0.1875, 0.0000, 0.1875, 0.1875, 0.0625, -0.1250, 0.0625, 0.0000, 0.1250, 0.0625, 0.1250, 0.0625, 0.1875, -0.0625, 0.1250, -0.0625, -0.0625, -0.1250, 0.0000, 0.1250, -0.1875, 0.1875, 0.2500, -0.1250, -0.0625, 0.0625, -0.0625, -0.1250, -0.1250, -0.0625, 0.1875, 0.0625, 0.0000, 0.2500, 0.0000, 0.2500, 0.0000, -0.2500, 0.1250, 0.0625, 0.0000, -0.2500, -0.1250, 0.0000, -0.0625, -0.1875, 0.0625, 0.1250, 0.1875, -0.0625, 0.1250, -0.1250, -0.0625, -0.0625, -0.1875, -0.0625, -0.0625, 0.2500, 0.0000, 0.1250, 0.0625, 0.1875, -0.1875, -0.1250, 0.0000, -0.2500, -0.2500, -0.0625, -0.0625, 0.1875, -0.0625, 0.0000, -0.2500, 0.0625, -0.2500, 0.0000, 0.0000, -0.0625, 0.0625, 0.0625, -0.0625, 0.0000, 0.0000, 0.1875, -0.1875, 0.1250, 0.0625, 0.1875, -0.0625, 0.1875, 0.0000, -0.1250, 0.0000, 0.0625, -0.1250, -0.0625, 0.0000, -0.1250, 0.0000, -0.1250, 0.0000, -0.3125, 0.0625, -0.2500, 0.1875, 0.1250, 0.0000, 0.0625, -0.0625, 0.0625, 0.1875, -0.1250, 0.1875, 0.0000, 0.0000, 0.1250, -0.0625, 0.1875, 0.1250, 0.2500, -0.1250, -0.1250, -0.0625, -0.1250, 0.0000, -0.0625, 0.0000, -0.0625, 0.1875, 0.0000, 0.0625, -0.1250, -0.0625, 0.1250, 0.0625, 0.0000, 0.0625, -0.1875, -0.1875, 0.0625, 0.1250, 0.1875, 0.0625, -0.0625, 0.0000, 0.0000, 0.0000, -0.1250, -0.0625, -0.2500, 0.2500, -0.1250, -0.1250, -0.1875, 0.0000, 0.0000, -0.1875, -0.0625, 0.1250, 0.0625, 0.1875, 0.1250, -0.0625, -0.0625, -0.3125, 0.1250, 0.1250, -0.0625, 0.0625, -0.1875, 0.2500, 0.1250, 0.0000, 0.2500, 0.1875, -0.1250, -0.1875, -0.1250, -0.1875, 0.0625, 0.0625, 0.0000, -0.1250, 0.0000, -0.0625, 0.0000, 0.0000, 0.0625, -0.0625, 0.0000, 0.0000, 0.0000, -0.1250, -0.0625, 0.1875, 0.1875, -0.1875, 0.1250, -0.0625, 0.0000, -0.1875, 0.0000, 0.0000, 0.0000, 0.0000, -0.2500, 0.0000, -0.0625, -0.0625, 0.2500, -0.0625, 0.0625, -0.0625, -0.0625, 0.1250, -0.1250, -0.2500, 0.0000, -0.1250, 0.0000, 0.0000, 0.1875, 0.2500, 0.0625, -0.1250, -0.1875, 0.1875, -0.0625, 0.0000, 0.0625, 0.1250, -0.1875, 0.1250, -0.1875, -0.1875, 0.0625, 0.0625, 0.0625, -0.0625, -0.1250, -0.1875, -0.1875, -0.1250, -0.0625, -0.1250, -0.0625, -0.1875, 0.1250, -0.1250, 0.0625, -0.1875, -0.1250, 0.0625, 0.0000, -0.1250, 0.1250, 0.0000, 0.1250, -0.1250, -0.0625, 0.0625, -0.1875, 0.0625, 0.0000, 0.1250, -0.0625, 0.0000, 0.1250, 0.2500, -0.2500, 0.0625, -0.0625, -0.0625, 0.0625, 0.1250, 0.1875, 0.0625, -0.0625, -0.0625, 0.0000, -0.1250, -0.1250, 0.1875, -0.0625, -0.0625, -0.1875, 0.2500, -0.0625, 0.0000, -0.0625, -0.1875, 0.0000, 0.0000, -0.0625, -0.0625, -0.1875, -0.1875, -0.0625, 0.2500, 0.1875, -0.0625, 0.0625, 0.0625, -0.1250, 0.0000, -0.1875, -0.1875, 0.1875, -0.0625, -0.1250, -0.2500, -0.0625, 0.1250, -0.0625, 0.0625, 0.0625, -0.0625, -0.0625, -0.1250, -0.0625, -0.1250};

#endif

#endif
