//Numpy array shape [486, 1]
//Min -0.187500000000
//Max 0.187500000000
//Number of zeros 170

#ifndef W16_H_
#define W16_H_

#ifndef __SYNTHESIS__
weight16_t w16[486];
#else
weight16_t w16[486] = {-0.0625, 0.0625, -0.1250, 0.0000, -0.1250, 0.0625, -0.0625, 0.0000, -0.0625, 0.0000, 0.0000, -0.1250, -0.0625, 0.0625, 0.0000, 0.0625, -0.0625, 0.0000, 0.0000, 0.0000, -0.0625, 0.0000, -0.1250, 0.0625, 0.0625, -0.0625, -0.0625, -0.0625, -0.0625, -0.0625, 0.0000, -0.1250, 0.0625, 0.0625, -0.1250, 0.0000, 0.0000, -0.1250, 0.0000, -0.0625, 0.0625, 0.0000, -0.0625, 0.0000, -0.0625, 0.0625, 0.0000, 0.0000, 0.0625, -0.1250, 0.0625, -0.0625, -0.1875, 0.1250, 0.0000, 0.0000, 0.0625, 0.0625, -0.0625, 0.1250, 0.0625, 0.0000, 0.0000, 0.1250, 0.0000, 0.0625, -0.1250, 0.0625, 0.0000, -0.0625, 0.0000, 0.0000, 0.0000, 0.0000, 0.0625, 0.0000, -0.1250, 0.0000, 0.0000, 0.0000, -0.0625, 0.1250, -0.0625, -0.0625, 0.0625, -0.0625, 0.0625, 0.0000, 0.0000, -0.0625, 0.0000, 0.0000, -0.1250, -0.0625, 0.0000, 0.0000, 0.1250, 0.1250, 0.0000, 0.0625, -0.0625, 0.0000, -0.0625, -0.0625, 0.1250, 0.0000, 0.0000, 0.0000, 0.0625, -0.1250, 0.0000, 0.0625, -0.0625, 0.0625, 0.1250, -0.0625, -0.0625, 0.0000, 0.0000, -0.1250, -0.1250, -0.0625, 0.1250, 0.1250, -0.0625, 0.0000, -0.0625, -0.0625, 0.0625, 0.0625, -0.0625, -0.0625, 0.0000, -0.1250, -0.1250, 0.1250, 0.0000, -0.0625, 0.0625, 0.0000, 0.0000, 0.0625, 0.0625, 0.0000, 0.0000, 0.0000, 0.0000, 0.0000, 0.0625, 0.0000, 0.0625, -0.0625, -0.1250, 0.1250, 0.0000, 0.0000, -0.0625, -0.0625, 0.0000, -0.0625, 0.0000, 0.0000, -0.0625, 0.0000, 0.0625, 0.1875, -0.1250, -0.0625, 0.0625, 0.0625, 0.1250, 0.0625, -0.0625, -0.1250, 0.0000, 0.0625, -0.0625, 0.0625, 0.0000, 0.0000, 0.0625, -0.0625, 0.0000, 0.0625, 0.0000, -0.0625, -0.1250, 0.0000, 0.0000, 0.0000, 0.0000, -0.1250, 0.0000, -0.1250, 0.0000, 0.1250, -0.0625, 0.0000, 0.0000, -0.1250, 0.0625, 0.0000, 0.0625, 0.0000, 0.0000, 0.0625, 0.0000, 0.0000, 0.0625, 0.0625, 0.0000, 0.0625, -0.1250, -0.0625, 0.0625, 0.0625, 0.0625, 0.0000, -0.0625, 0.0625, 0.0000, 0.1250, 0.0625, 0.0000, 0.0625, 0.1250, -0.1250, -0.0625, -0.0625, 0.0625, 0.0000, 0.0625, 0.0625, 0.0625, 0.0000, 0.0000, 0.0625, 0.0000, -0.1250, -0.1250, 0.0625, 0.0000, 0.0625, -0.0625, 0.0000, -0.0625, 0.0000, -0.0625, -0.0625, 0.0000, 0.0000, -0.0625, -0.0625, 0.0625, 0.0000, 0.0000, 0.0000, 0.0000, 0.0000, 0.0000, -0.0625, 0.0000, -0.0625, -0.0625, 0.0000, 0.0000, 0.0000, 0.0625, 0.0625, 0.0625, 0.0625, 0.0000, 0.0000, 0.0000, 0.0625, 0.0625, -0.0625, -0.1250, 0.0000, 0.1250, 0.0625, -0.1250, 0.0625, 0.1250, -0.0625, -0.0625, -0.0625, -0.0625, 0.1250, 0.1250, 0.0000, -0.1250, 0.0000, -0.0625, 0.1250, 0.0625, 0.0000, -0.0625, -0.0625, 0.0625, 0.1250, -0.0625, -0.0625, 0.0000, 0.0625, -0.0625, 0.0000, 0.0000, 0.0000, -0.0625, 0.0625, -0.0625, -0.0625, 0.0000, 0.1250, -0.1250, -0.0625, 0.0000, 0.0625, 0.0000, -0.0625, -0.0625, -0.0625, 0.0000, 0.0000, -0.1250, 0.0000, 0.0625, -0.0625, 0.0625, 0.0000, 0.0000, 0.0000, 0.0625, 0.0625, 0.0625, 0.0000, 0.0625, 0.0000, -0.0625, 0.0000, -0.0625, 0.0000, -0.1250, 0.0625, 0.0000, 0.0625, -0.0625, -0.0625, 0.0625, 0.0625, -0.0625, 0.0000, 0.1250, 0.0000, 0.1250, 0.0625, -0.0625, -0.0625, 0.0625, -0.1250, 0.0000, 0.0000, 0.0625, -0.0625, 0.0625, -0.0625, 0.0000, 0.0000, -0.0625, -0.0625, 0.0000, -0.0625, -0.0625, 0.0000, -0.1875, 0.0000, 0.0000, 0.0000, 0.0000, -0.0625, 0.0625, -0.0625, -0.0625, 0.0000, -0.0625, -0.1250, 0.0625, 0.0000, 0.0000, 0.0625, 0.0625, -0.0625, -0.0625, 0.0625, 0.0000, 0.0625, -0.1250, 0.0625, -0.1250, 0.0625, -0.0625, 0.0000, 0.0625, 0.0000, -0.1875, 0.0625, -0.0625, 0.0000, 0.0000, 0.0000, -0.0625, 0.1250, 0.1250, -0.1250, 0.0625, -0.1250, 0.0000, 0.0000, 0.0000, 0.0000, -0.1250, 0.0625, -0.1250, -0.0625, 0.0625, -0.0625, -0.0625, 0.0000, -0.0625, 0.0000, -0.0625, 0.0000, 0.0000, 0.0000, -0.1250, 0.0000, -0.1250, 0.0000, 0.0000, 0.0625, -0.0625, 0.0625, 0.0625, -0.0625, -0.0625, 0.0000, -0.1250, 0.0625, -0.0625, 0.0000, 0.0000, -0.0625, -0.1250, 0.0625, 0.0625, 0.0625, -0.0625, 0.0625, 0.0625, 0.0000, 0.0000, -0.1250, 0.1250, 0.1250, 0.0625, 0.0625, -0.0625, 0.0625, 0.0000, 0.0000, -0.0625, 0.0625, -0.0625, 0.1250, 0.0625, -0.1250, -0.0625, -0.0625, -0.1250, 0.0625, -0.0625, 0.0000, -0.0625, 0.0000, 0.1250};

#endif

#endif
