//Numpy array shape [3, 3, 4, 6]
//Min -0.500000000000
//Max 0.500000000000
//Number of zeros 28

#ifndef W9_H_
#define W9_H_

#ifndef __SYNTHESIS__
weight9_t w9[216];
#else
weight9_t w9[216] = {-0.2500, -0.2500, -0.3125, 0.2500, 0.3125, 0.4375, 0.1250, -0.1250, 0.0625, 0.0000, 0.1250, 0.1875, 0.0625, -0.2500, -0.3750, 0.2500, 0.3125, 0.2500, 0.0625, -0.1250, -0.0625, -0.3125, 0.3750, 0.4375, 0.1250, -0.0625, 0.3125, -0.3750, 0.1250, 0.1875, -0.0625, -0.1875, -0.0625, -0.5000, 0.1875, -0.1875, -0.1250, 0.1875, 0.3125, 0.0625, 0.0000, -0.0625, 0.3750, 0.0000, -0.1875, 0.0000, -0.0625, -0.1250, -0.1875, -0.3750, 0.0000, 0.2500, 0.2500, -0.1250, 0.1250, -0.1875, -0.4375, -0.0625, 0.0000, -0.3750, 0.1250, 0.3125, 0.1875, -0.1250, 0.1875, -0.3750, -0.1250, -0.2500, 0.0625, 0.1250, -0.3750, -0.1875, -0.1250, -0.1250, -0.3750, -0.0625, -0.3125, -0.0625, -0.1250, 0.4375, -0.2500, -0.1250, 0.1250, -0.1250, 0.1875, 0.0000, 0.0625, 0.2500, -0.3125, 0.1875, 0.3750, -0.2500, -0.2500, -0.1250, 0.3750, 0.0625, 0.0000, -0.1875, -0.1875, 0.0000, 0.1250, 0.0000, 0.1250, 0.0000, -0.2500, 0.5000, 0.0625, -0.1250, 0.1250, 0.4375, -0.3125, -0.0625, -0.1250, 0.1875, -0.1250, -0.3750, -0.0625, -0.1250, -0.3750, 0.3125, -0.3125, 0.2500, 0.5000, 0.0000, 0.1250, 0.2500, -0.1250, 0.0000, -0.2500, 0.1875, 0.3750, -0.0625, -0.1250, 0.3750, 0.0000, -0.0625, 0.0000, -0.4375, 0.1250, 0.0000, -0.0625, -0.1875, -0.3125, -0.0625, 0.0000, 0.1875, 0.3125, -0.0625, 0.0000, 0.0625, 0.0000, 0.0000, -0.1250, -0.2500, 0.0625, 0.2500, 0.2500, 0.0000, 0.1250, -0.0625, 0.0625, 0.5000, 0.0625, 0.3125, -0.2500, 0.3125, 0.3125, 0.0000, -0.1250, 0.4375, -0.0625, -0.2500, 0.1875, 0.0000, 0.0000, -0.2500, -0.2500, 0.1250, -0.0625, 0.1875, -0.3125, 0.1875, -0.0625, -0.4375, 0.1875, -0.1250, -0.3125, -0.2500, 0.0625, -0.4375, 0.3125, 0.4375, 0.1250, 0.0000, 0.3125, 0.3125, 0.1875, 0.0000, 0.0625, 0.0000, -0.3125, 0.0625, 0.1250, -0.1875, -0.4375, -0.0625, 0.1250, -0.0625, -0.2500, 0.0000, -0.1875, -0.5000, 0.0625, 0.0625, -0.4375, 0.1875};

#endif

#endif
