//Numpy array shape [726, 1]
//Min -0.125000000000
//Max 0.125000000000
//Number of zeros 306

#ifndef W12_H_
#define W12_H_

#ifndef __SYNTHESIS__
weight12_t w12[726];
#else
weight12_t w12[726] = {0.0000, 0.0000, 0.0625, 0.0000, 0.0000, -0.0625, 0.0000, 0.0625, 0.0000, 0.0000, -0.0625, 0.1250, 0.0625, 0.0000, 0.0000, -0.1250, -0.0625, -0.0625, 0.0625, -0.0625, -0.0625, -0.0625, 0.0000, 0.0625, 0.0000, -0.0625, 0.0000, -0.0625, 0.0000, -0.0625, 0.0625, 0.0000, 0.0000, 0.0625, -0.1250, -0.0625, -0.1250, 0.0000, 0.0625, -0.0625, -0.0625, -0.0625, 0.0625, 0.0625, 0.0000, 0.0000, -0.0625, 0.0625, 0.0000, 0.0000, -0.0625, -0.0625, 0.0625, 0.0000, 0.0000, 0.0000, 0.0000, 0.0625, -0.0625, 0.0000, 0.0625, 0.0625, 0.0625, 0.0000, 0.0625, -0.0625, 0.0625, 0.0000, 0.0625, -0.0625, -0.0625, 0.0000, -0.0625, 0.0000, -0.1250, 0.0000, 0.0000, 0.0625, -0.0625, 0.0000, 0.0000, 0.0000, -0.0625, 0.0000, 0.0625, 0.0000, -0.0625, 0.0000, 0.0000, -0.0625, -0.0625, 0.0000, 0.0000, 0.0625, 0.0625, 0.0000, -0.0625, -0.0625, 0.0625, 0.0000, 0.0000, -0.0625, -0.0625, 0.0625, -0.0625, 0.0625, -0.0625, 0.0000, -0.0625, -0.0625, 0.0000, 0.0000, 0.0625, 0.0000, 0.0000, 0.1250, 0.0000, 0.0000, 0.0625, -0.0625, 0.0000, 0.0000, 0.0625, 0.0625, 0.0000, 0.0625, 0.0000, 0.0625, 0.0625, -0.0625, 0.0625, 0.0625, -0.0625, 0.0625, 0.0000, 0.1250, -0.0625, -0.0625, 0.0000, 0.0625, 0.0000, 0.0000, -0.0625, 0.0625, -0.0625, 0.0625, 0.0625, 0.0000, 0.0625, 0.0000, 0.0000, -0.1250, 0.0625, 0.0000, 0.1250, 0.0625, 0.0625, -0.1250, -0.0625, 0.1250, 0.0625, -0.0625, 0.0000, 0.0625, 0.0000, 0.0000, 0.0000, 0.0625, -0.0625, 0.0000, 0.0000, 0.0000, -0.0625, 0.0000, 0.0000, 0.0625, -0.0625, 0.1250, -0.0625, -0.0625, 0.0000, 0.0000, 0.0625, 0.0000, -0.0625, 0.0000, 0.0000, 0.0000, 0.0000, 0.0625, 0.1250, 0.0000, 0.0000, 0.0625, 0.0625, 0.0000, -0.0625, -0.0625, 0.0000, 0.0625, -0.0625, -0.0625, 0.0625, -0.0625, 0.0000, 0.0625, 0.0000, 0.1250, 0.0625, 0.0000, 0.0000, 0.0000, 0.0625, 0.0625, 0.0625, 0.0625, 0.0000, 0.0000, 0.0000, 0.0000, 0.0000, 0.0625, -0.1250, 0.0000, -0.0625, -0.0625, -0.0625, 0.0000, 0.0625, 0.0000, 0.0000, 0.0625, 0.0625, 0.0000, 0.0625, 0.0000, -0.1250, 0.0625, 0.0000, -0.0625, 0.0625, -0.0625, 0.0625, -0.0625, 0.0625, 0.0000, 0.0625, -0.0625, 0.0000, 0.0000, -0.0625, 0.0625, 0.0625, 0.0625, -0.0625, 0.0000, -0.0625, 0.0000, -0.0625, 0.0000, -0.0625, 0.0000, 0.0000, 0.0000, 0.0000, 0.0000, 0.0000, -0.0625, 0.0000, 0.0000, -0.0625, 0.0625, -0.0625, 0.0625, 0.0625, 0.0625, 0.0000, 0.0625, 0.1250, 0.0625, -0.0625, -0.1250, 0.0625, -0.0625, -0.0625, 0.0000, -0.0625, 0.0000, -0.0625, 0.0625, 0.0625, 0.0625, 0.0000, 0.0625, -0.0625, 0.0000, 0.1250, 0.0000, 0.0000, -0.0625, 0.0625, -0.1250, 0.0625, 0.0000, 0.0000, -0.0625, -0.1250, -0.0625, 0.0000, 0.0000, -0.0625, 0.0000, 0.0625, -0.0625, -0.0625, 0.0000, -0.0625, 0.0000, 0.0625, 0.0000, 0.0625, 0.0625, 0.0625, 0.0000, 0.0000, -0.0625, 0.0000, -0.0625, -0.0625, 0.0000, 0.0625, 0.0000, 0.0000, 0.0000, -0.1250, -0.1250, 0.0000, -0.1250, 0.0625, -0.0625, 0.0000, 0.0625, 0.0000, -0.0625, 0.0625, 0.0625, 0.0000, 0.0000, -0.0625, 0.0625, 0.0000, -0.1250, -0.0625, 0.0625, 0.0625, 0.0000, 0.1250, -0.0625, 0.0625, 0.0000, 0.1250, 0.0000, 0.0000, 0.0000, 0.1250, 0.0625, 0.0000, 0.0000, 0.0000, 0.0625, 0.0000, 0.0000, 0.0000, 0.0625, 0.0000, -0.0625, 0.0625, -0.0625, 0.0000, 0.0000, 0.0625, 0.0000, 0.0625, -0.0625, -0.0625, 0.0000, -0.0625, 0.0000, -0.1250, 0.0000, 0.0625, 0.0625, -0.0625, 0.0000, 0.0000, -0.0625, -0.0625, -0.1250, 0.0000, -0.1250, 0.0000, 0.0000, 0.0000, 0.0000, 0.0625, 0.0000, 0.0625, -0.0625, 0.0000, 0.0000, 0.0625, 0.0000, 0.0000, -0.0625, 0.0625, 0.0000, 0.1250, 0.0625, -0.0625, 0.0625, 0.0625, -0.0625, -0.0625, 0.0000, 0.0000, 0.0000, 0.0625, 0.0000, 0.0000, -0.0625, 0.0000, 0.0625, 0.0625, -0.0625, -0.0625, 0.0000, -0.0625, 0.0000, 0.0625, 0.0000, 0.0000, -0.0625, 0.0000, 0.0000, -0.0625, 0.0000, 0.0000, 0.0000, 0.0000, 0.0625, 0.0000, 0.0000, 0.0000, -0.0625, 0.0000, 0.0000, 0.0000, 0.0000, 0.0625, -0.0625, 0.0000, 0.0625, 0.0625, 0.0000, 0.0000, 0.0625, 0.0000, 0.0000, 0.1250, 0.0625, -0.0625, 0.0625, 0.0625, 0.1250, 0.0625, 0.1250, 0.0000, 0.0625, -0.0625, 0.0625, -0.1250, 0.0000, 0.0000, -0.1250, 0.0000, 0.0000, 0.0625, 0.0625, 0.0000, 0.0000, 0.0000, 0.0000, -0.0625, -0.0625, 0.1250, -0.0625, 0.0625, -0.0625, 0.0625, 0.0000, 0.0625, 0.0000, 0.0625, 0.0000, 0.0000, -0.0625, 0.0000, 0.0000, 0.0000, -0.0625, -0.0625, 0.0000, 0.0000, 0.0000, -0.0625, -0.0625, 0.0625, -0.0625, 0.1250, 0.0000, -0.0625, -0.0625, 0.0625, 0.0000, -0.0625, 0.0000, -0.0625, 0.0625, 0.0625, 0.0000, -0.0625, -0.0625, 0.0625, 0.0625, 0.0625, 0.0000, 0.0625, 0.0625, 0.0000, 0.0000, 0.0000, 0.0625, 0.1250, 0.0000, 0.0000, -0.0625, 0.1250, 0.0000, 0.0000, -0.0625, -0.0625, -0.0625, 0.0000, 0.0625, 0.0000, 0.0000, -0.0625, 0.0000, 0.1250, 0.0625, 0.0625, -0.0625, -0.0625, 0.0000, 0.0000, 0.0625, 0.0000, -0.0625, 0.0625, 0.0000, -0.0625, -0.0625, 0.0000, 0.0625, 0.0625, 0.0000, 0.0000, 0.0000, 0.0625, 0.0625, 0.0000, 0.0000, 0.0000, -0.0625, 0.0625, 0.0000, 0.0000, 0.0000, -0.0625, 0.0000, 0.0625, 0.1250, 0.0625, 0.0625, 0.0000, 0.0000, 0.0625, 0.0000, 0.0000, 0.1250, 0.0000, -0.0625, 0.0625, 0.0625, 0.0000, 0.0000, -0.0625, 0.0625, 0.0625, 0.0625, 0.0625, 0.0000, -0.0625, 0.0625, -0.0625, 0.1250, 0.0625, 0.0000, -0.0625, -0.0625, 0.0625, -0.0625, 0.0625, -0.0625, 0.0000, 0.0000, 0.0625, 0.0625, 0.0000, 0.0000, 0.0000, 0.0000, 0.0000, 0.0000, 0.0000, -0.0625, 0.0625, -0.1250, 0.0625, 0.0625, -0.0625, -0.0625, 0.0000, 0.0000, 0.0000, 0.0000, 0.0000, 0.0000, 0.0625, 0.0000, -0.0625, 0.0625, -0.0625, 0.0000, -0.0625, 0.0000, 0.0000, 0.0000, -0.0625, -0.0625, -0.0625, 0.1250, -0.0625, -0.0625, -0.0625, -0.0625, 0.0625, 0.0000, 0.0000, -0.0625, -0.0625, -0.0625, 0.0625, 0.0000, -0.0625, -0.1250, -0.0625, -0.0625, 0.0625, 0.0000, 0.0000, 0.0625, -0.0625, -0.0625, -0.0625, 0.0000, -0.1250, 0.0625, 0.0000, 0.0625, -0.0625, 0.0000, -0.0625, 0.0000, 0.0000, 0.0000, 0.0000, 0.0000, 0.0000, 0.0000, -0.0625, -0.0625, 0.0625, 0.0000, 0.0625, -0.0625, 0.0000, 0.0000, 0.0000, -0.0625, -0.0625, 0.0000, 0.0000, -0.0625, 0.1250, -0.0625, -0.0625, 0.0000, 0.0000, 0.0000, -0.0625, 0.1250, -0.0625, 0.0000, 0.0000, 0.0000};

#endif

#endif
