//Numpy array shape [3, 3, 6, 6]
//Min -0.437500000000
//Max 0.437500000000
//Number of zeros 37

#ifndef W14_H_
#define W14_H_

#ifndef __SYNTHESIS__
weight14_t w14[324];
#else
weight14_t w14[324] = {0.1875, 0.1875, -0.0625, 0.0625, 0.0000, -0.2500, -0.1875, -0.1875, 0.1875, 0.1250, -0.1250, 0.2500, 0.1250, 0.0000, 0.0000, 0.1875, -0.1875, 0.0625, 0.2500, 0.3125, -0.1875, 0.1250, 0.4375, 0.1250, 0.1250, -0.3125, -0.3750, -0.1875, -0.1250, 0.1250, 0.0625, 0.0000, -0.1250, 0.1250, -0.2500, 0.0625, 0.0000, 0.1250, -0.3125, -0.2500, 0.2500, 0.1875, 0.3125, -0.0625, 0.0000, 0.0000, -0.2500, -0.2500, 0.0625, 0.1250, 0.1875, -0.1250, 0.0000, -0.1250, 0.0625, 0.2500, 0.0625, -0.1250, -0.0625, -0.2500, -0.1250, 0.1875, -0.0625, -0.1250, 0.0625, -0.1875, 0.0000, 0.3750, 0.0625, 0.2500, -0.1875, -0.0625, -0.3750, 0.3125, 0.3750, -0.0625, 0.0000, -0.1875, 0.0000, 0.0625, 0.1875, -0.1250, -0.2500, 0.1875, -0.1875, 0.0625, 0.0625, -0.0625, 0.0625, -0.0625, -0.0625, 0.1250, -0.0625, -0.0625, 0.2500, 0.3750, 0.2500, -0.2500, 0.1875, 0.1250, -0.2500, 0.0625, -0.1875, 0.1875, 0.1250, -0.1875, -0.0625, -0.1250, 0.0000, 0.0625, -0.1875, 0.1250, -0.1250, 0.1875, 0.1875, -0.1875, 0.0625, 0.1875, 0.1875, -0.1250, -0.2500, 0.1250, -0.1250, 0.0000, 0.1250, 0.1250, 0.3750, 0.1875, -0.1875, 0.1250, -0.3125, 0.3125, 0.3125, -0.1250, 0.2500, 0.3750, -0.0625, 0.0625, -0.1875, 0.2500, 0.1250, 0.0000, 0.1250, -0.1250, 0.2500, 0.4375, 0.3125, -0.1250, 0.2500, -0.1875, 0.2500, 0.0000, 0.3750, -0.3750, 0.0625, 0.0000, 0.0000, 0.2500, 0.1250, -0.0625, 0.0000, 0.3125, -0.1250, 0.1875, 0.1250, -0.2500, -0.3750, 0.1250, 0.2500, 0.3125, -0.3125, 0.1250, 0.1250, -0.0625, 0.1250, -0.0625, 0.1875, -0.3125, 0.1875, 0.1250, 0.0625, 0.0000, -0.1250, -0.3750, -0.1250, 0.3125, -0.1875, -0.3750, 0.2500, 0.0625, 0.2500, 0.0625, 0.0625, -0.2500, 0.1875, 0.0625, 0.1875, 0.0000, -0.1250, 0.0625, -0.1250, -0.4375, 0.0625, -0.3125, 0.0000, 0.0000, 0.1250, 0.0000, -0.2500, 0.1875, 0.0000, -0.2500, 0.0000, 0.1875, 0.0000, 0.0000, 0.4375, 0.4375, -0.0625, -0.0625, 0.3750, 0.0625, 0.0625, 0.0625, 0.0625, -0.0625, 0.1250, 0.3125, 0.0000, 0.0625, 0.0625, 0.1875, -0.1250, -0.0625, 0.2500, 0.0625, 0.3125, -0.1250, -0.3125, -0.1875, -0.2500, -0.1250, 0.0000, -0.0625, -0.1250, 0.3125, -0.0625, 0.0625, 0.1875, 0.3125, -0.3750, -0.1875, 0.0625, 0.0625, -0.1250, 0.0000, -0.0625, 0.0625, 0.1250, 0.0625, 0.3125, -0.2500, -0.4375, 0.0625, -0.0625, 0.2500, -0.2500, 0.1875, 0.2500, 0.0000, -0.3125, -0.2500, -0.1875, -0.2500, -0.2500, 0.0625, 0.0625, 0.1250, 0.1250, 0.0625, 0.1875, -0.2500, 0.0000, 0.0625, 0.0625, 0.1250, 0.0625, -0.3125, 0.0000, 0.0625, 0.0625, 0.0625, 0.3125, -0.0625, 0.0625, -0.3125, 0.1875, -0.1875, -0.1250, -0.1875, 0.1250, 0.1250, -0.2500, 0.0625, -0.0625, 0.4375, 0.0000, -0.1250, -0.1250, -0.1250, 0.1250, 0.1250, -0.1250, 0.0000, -0.0625, 0.0000, 0.3125, 0.1875, 0.3750, 0.1875, -0.1875, -0.2500, -0.2500, 0.0000};

#endif

#endif
