//Numpy array shape [3, 3, 32, 1]
//Min -0.138433590531
//Max 0.140553995967
//Number of zeros 0

#ifndef W26_H_
#define W26_H_

#ifndef __SYNTHESIS__
model_default_t w26[288];
#else
model_default_t w26[288] = {0.0768184364, -0.0449873433, 0.0360383689, -0.1210428104, 0.0803111047, -0.0148108006, 0.0252431929, -0.0200160667, -0.0009327084, 0.0586052388, 0.0963428617, 0.0954085588, 0.0930000842, 0.0792744160, 0.1078005135, -0.0321064964, -0.0882019773, 0.0569940656, -0.0846301168, -0.1369834542, 0.0193605572, 0.1188874096, 0.0732133389, 0.0981315821, 0.0409016162, 0.0386701971, -0.1356166005, 0.0055567771, 0.0573668629, 0.0331729650, -0.0262184367, -0.1251799762, 0.0820279121, 0.0250992775, 0.0059527904, 0.0086628646, -0.0792772025, 0.0641873330, 0.0393071175, 0.1387766749, 0.0380469859, 0.1203593463, -0.1180206686, -0.0130378902, -0.0760409236, -0.0373271778, -0.0046029836, -0.0161751062, -0.0963726491, -0.1266402900, 0.1355306357, -0.0762371719, -0.1358906776, -0.1372514963, -0.0141862184, 0.0905753374, 0.0818157643, -0.0036839545, -0.0388954505, 0.0328724235, 0.0378108919, -0.0881271511, 0.1103544980, 0.1197610945, -0.1245556399, -0.1372248977, 0.0431723446, 0.1403474361, -0.0105550587, -0.0242068470, 0.1405539960, 0.0789444894, -0.0861315951, 0.0610385984, -0.1332950890, 0.0776939839, 0.0618387759, -0.0366612226, -0.0958209634, 0.0279644728, 0.0321652889, -0.0276455656, -0.1367358416, 0.0086693615, -0.1304769516, -0.1094403267, -0.0156278610, -0.0376430452, 0.0298687518, -0.0796308517, -0.1054789275, -0.0935228020, 0.1075718105, 0.0359945595, 0.0321780592, 0.0145259798, -0.0654479787, -0.0851044655, 0.0569348633, -0.0069456846, -0.0076932013, 0.0226888359, 0.0392259210, 0.1002217531, -0.0790294185, 0.0415012538, -0.0243958384, -0.0334720537, 0.1174123138, -0.0045139343, -0.0024250150, 0.0463775694, -0.0818013996, -0.0495076105, -0.0853585601, 0.1316141933, -0.0948659182, 0.0686863512, 0.0059555322, -0.1176966727, -0.0692360401, 0.0159217715, -0.0522980317, -0.0484119356, 0.1175794452, 0.1105999798, 0.1126249284, 0.1302802712, -0.0328912884, 0.0641334504, 0.0918453783, -0.0751289129, 0.0548895299, -0.0286127105, 0.0920535028, -0.1044232994, 0.0571949482, -0.0767809600, 0.1228317469, -0.0793196633, -0.0947455913, 0.1057749391, -0.0129652023, -0.0393854305, -0.0632070750, -0.1240570247, -0.0433579758, 0.0839870721, 0.0716116130, 0.0484448075, 0.0152493715, 0.1133816987, 0.1222463399, 0.1025590301, -0.0689533874, 0.1021326482, 0.0573211163, 0.0921085030, -0.0238284618, 0.0483320206, -0.1096339226, -0.0428505093, 0.0062870234, -0.0560452268, 0.0355527997, -0.0901724920, 0.0749804974, -0.1149772778, -0.0414319187, 0.0773418546, 0.0808741748, -0.0706522614, -0.0334063098, 0.0346752256, -0.0412611961, 0.0430953801, 0.1198676974, 0.1088622659, 0.1276724190, -0.1029767543, 0.0996990651, 0.0698492676, 0.0965454429, 0.1125622839, 0.0818198770, -0.1353147030, -0.0969288126, 0.0327727944, -0.1140327752, 0.0276649147, 0.0683933944, 0.0725546628, -0.0918132141, 0.0155617148, -0.0855231807, 0.0199208409, 0.0953227580, -0.0283249021, 0.0332597196, -0.0569002703, -0.0600335598, 0.0164504349, -0.0639122427, -0.0035213381, 0.0391629189, 0.1160077602, 0.0732883960, 0.0518750101, 0.0670861900, -0.0177817047, -0.0141973048, -0.0254892111, 0.1394425482, -0.0740556717, 0.0946274549, -0.0019523799, -0.0228732452, 0.1210554093, 0.0213986635, -0.0162024945, -0.0236539766, -0.0129928440, 0.0629327297, 0.1225021929, -0.0779252350, -0.0263232812, 0.0484044403, -0.0265384689, 0.1147499532, 0.1230830401, 0.1197960824, -0.0917857662, -0.0810399875, -0.0067570657, 0.0606076866, -0.0267884880, 0.0312822461, -0.1384335905, -0.0438717753, -0.0624227524, -0.0125651211, 0.0718416125, 0.0857874751, -0.0331347361, 0.0974297971, 0.0649057478, 0.0674060285, -0.1216380745, -0.0386464819, 0.0976659358, -0.0849556029, 0.1250150055, 0.1359270066, 0.0751931667, 0.0629176497, 0.1378403455, 0.1182347387, 0.0596728027, 0.0955118537, 0.0299535692, 0.1325338334, -0.0838709325, 0.0938685089, 0.0105480105, -0.0534096062, 0.1110775620, 0.1248071045, 0.0597541928, 0.0419378877, 0.0259257853, -0.0452162847, 0.0842490196, 0.1275391132, -0.0384523720, 0.0755401403, 0.0980726182, -0.1020371914, -0.1033368111, -0.0572497174, -0.0484327376, -0.0371167734, -0.1359795332, -0.0269587710, 0.1397604793, -0.0083832145, 0.0374763906, 0.0163084120, 0.0616641492};

#endif

#endif
