//Numpy array shape [32, 50]
//Min -0.270487487316
//Max 0.270338296890
//Number of zeros 0

#ifndef W33_H_
#define W33_H_

#ifndef __SYNTHESIS__
model_default_t w33[1600];
#else
model_default_t w33[1600] = {0.0629577041, -0.1664883941, -0.1816802323, -0.2150241733, -0.1421374083, 0.0502501130, 0.0359610617, -0.1951932013, -0.1608902514, 0.2469419837, -0.2258105427, 0.0836016238, -0.1975867152, 0.0863388777, -0.1804714501, 0.1543691158, -0.0830571055, -0.0652489364, -0.0084320605, 0.0314852595, -0.2547701001, -0.0701460987, -0.0982135981, 0.1936901510, -0.1155850291, -0.2071938217, 0.1098803580, 0.1778462827, 0.2008432448, -0.2445666790, -0.1084036678, -0.1252547652, -0.0875640959, 0.1277032793, 0.0566127002, 0.1827466190, 0.1884130538, 0.2613984346, 0.1500401199, 0.1642332375, -0.0821097791, 0.1637251377, 0.1406471133, 0.1426648796, -0.1544058025, -0.0577009916, 0.2287601531, -0.2476577461, -0.0849407315, 0.0491196215, -0.0699466914, 0.0380384028, -0.1327767074, 0.0737696886, -0.1524928212, 0.2441239357, 0.1882718801, 0.0698939264, -0.2008133978, -0.1096055508, 0.2353352308, 0.0734301209, -0.2617346942, -0.0114126503, -0.1171365827, 0.0712736249, -0.1829142869, 0.2610629201, -0.2147513777, -0.0808897763, -0.2353416234, 0.0237393975, -0.0507732183, -0.0209141225, 0.0948878527, -0.1778502762, -0.1205827445, -0.0484603941, -0.2104274184, -0.0122329295, 0.1818577051, -0.1261965483, 0.1939772069, -0.0196338892, 0.2108097970, -0.0228713453, 0.1562454402, -0.0876837224, -0.2050862908, -0.1803869009, -0.2543052435, 0.1172885299, -0.0826174617, 0.2385962009, -0.1598619819, -0.2635408044, -0.1492142230, 0.2556690574, 0.0228848159, 0.1170015931, 0.2660391331, 0.0819088221, 0.2539792657, 0.1516560316, 0.1632265747, -0.0606546253, 0.0497214198, 0.0028454661, -0.1323875040, 0.1312922835, 0.0610460341, 0.2635945678, 0.0098457336, -0.2158865631, -0.2612180412, 0.1190707684, 0.1767958403, -0.0366410613, -0.1457734853, 0.1601035893, -0.2521403432, 0.0622105002, -0.2495351136, 0.0980398059, 0.0187754929, 0.1175785661, 0.0754650533, -0.0684756190, 0.0967438817, 0.0007336140, 0.0998215973, 0.2653920650, -0.0835424811, -0.2164442390, 0.0085355639, 0.1759901345, -0.2366703600, -0.1348398328, 0.1518693268, -0.0723885000, -0.2236553282, 0.1229392290, -0.2066577673, -0.1538780630, 0.0247323215, -0.0463165343, 0.2644325495, 0.1148116887, 0.0474203825, 0.1310811341, -0.1618779004, -0.1912260801, 0.1258856356, -0.1351204365, 0.1504559517, 0.1969415247, 0.1260406077, -0.2108012736, 0.2669857740, -0.1913713217, 0.1669698358, -0.1551882327, 0.2477762103, -0.1383350641, -0.0409097522, 0.2219242752, -0.1858920455, -0.2319899499, -0.2480448186, -0.2189844698, -0.2019926459, -0.2608131170, 0.0439864993, 0.1147584319, 0.0287418962, -0.1494441926, 0.1743983924, 0.0657366216, 0.0531842709, -0.0298217535, 0.1646144986, 0.0444474220, -0.1139035225, 0.1675344110, -0.1487606466, -0.1797664762, -0.1147764176, -0.2112046778, -0.0904349089, 0.2224387527, -0.1955096722, -0.2192435265, -0.2066977620, -0.1258869171, 0.0027858019, -0.0812189430, -0.2256145477, -0.2183182538, 0.0095925927, -0.1188938171, 0.0961646140, -0.0150322318, 0.0657891333, -0.0743975043, 0.0428267121, -0.0245004892, 0.1849007905, -0.0595823675, -0.0779357553, -0.2162516713, -0.2396790534, -0.0604009777, -0.1811231375, -0.0629955083, 0.2126500905, -0.1327187270, -0.1609968543, 0.2271582484, -0.0044451952, 0.0851845741, -0.2037960440, 0.2418752313, 0.1259250939, -0.0065951347, -0.1151722819, -0.1206182092, 0.0816026628, 0.1397651136, -0.0571584851, -0.1745036542, -0.1012717634, 0.0749663413, 0.0340322852, -0.0603283495, -0.2521615028, -0.1192258149, 0.2323876023, 0.1369216442, -0.0559762716, -0.1734842658, 0.0997789502, 0.0336584747, -0.1047795117, -0.2009376734, -0.2521851659, 0.0610908568, 0.0180105567, 0.1743814945, -0.2523026764, 0.0449268520, 0.1734986603, -0.0498608500, -0.0259215683, -0.2450618595, 0.2390085459, -0.1313221455, 0.0379441977, -0.0545104295, -0.0365645736, -0.1920621693, -0.1583331972, 0.1221711934, -0.0444548279, -0.1499569863, -0.2100065351, -0.1962052882, 0.0892751515, -0.2640668750, -0.1359533519, 0.1984610260, -0.1911118627, -0.1623480469, 0.2672668099, -0.0331900716, -0.1643903255, -0.0002075434, 0.0487180352, 0.1905843318, -0.2424845397, 0.1579196751, -0.1659341455, -0.1395780891, 0.1890763044, -0.1080481112, -0.2470364869, -0.0306533873, 0.1670285165, 0.0675824583, -0.0928313136, 0.1096252799, -0.0270787030, 0.0184839070, 0.0945062041, 0.0992105305, 0.0947393179, -0.0203113854, -0.0530948192, -0.1982981861, 0.2335343957, 0.1109595597, 0.2093014419, 0.0028650165, -0.1009635627, 0.1642104685, 0.0787345767, 0.1311747730, 0.2466406822, -0.1742999107, 0.1551140547, 0.1149601042, -0.0317139030, 0.1642610133, -0.1139251143, 0.0396004915, 0.1993798018, -0.1964996308, 0.0187164843, -0.1327925175, -0.2455639243, 0.0508647859, 0.1648693681, -0.1547743678, 0.0765756667, 0.0743608773, 0.0571589470, 0.2669871449, 0.1161931157, -0.0902760625, 0.2519437075, 0.0127655566, -0.0461159050, 0.0847581625, 0.0170856714, -0.2271423638, -0.1113974005, -0.1807699203, 0.2363832593, 0.0613382459, 0.0720182657, -0.1169016361, 0.0599260628, 0.0948770344, 0.0360975862, -0.1383163482, -0.0749905258, 0.1793496013, -0.1444756985, -0.1761872768, 0.0539841056, 0.0155299604, -0.2241276056, 0.1257279515, -0.1255706549, -0.1755446792, 0.2412331104, 0.0168641806, -0.1164316237, -0.0262760967, 0.0022758842, -0.0008481443, 0.1220102012, 0.2325968146, 0.0825034380, -0.1760624945, -0.0584023595, 0.0610148013, 0.0978196263, -0.1111970246, -0.0080939829, 0.1105920970, -0.2435742021, 0.2349122763, 0.1902811527, -0.0179419219, 0.1146659553, 0.1532534361, 0.2230596244, 0.2044328451, 0.0893405974, 0.1941085160, 0.2582283020, -0.1453361064, 0.2479449511, -0.1278972179, -0.1786406338, 0.2474607825, 0.1511103511, -0.0999781191, -0.2579153776, -0.2184181511, -0.1843325496, -0.2000134885, 0.2098469734, -0.2417963445, 0.0533258319, 0.0373851657, -0.2118982375, -0.0214301944, 0.1179711819, 0.0406621099, -0.0758655518, -0.0158345699, 0.1467275321, -0.0170139372, 0.0182207823, -0.1942450404, 0.1022002101, 0.2630254626, -0.1595331430, -0.1337132752, 0.1468136907, 0.0082400143, 0.0094138980, -0.2686458230, -0.1388437152, -0.1655781567, -0.1128569394, 0.1212704778, 0.2385689020, -0.2307446599, 0.1747769117, 0.2361660004, 0.1007700264, -0.1790314615, 0.0223377943, 0.2085776329, 0.0373069942, 0.2415684462, 0.2344391942, -0.2295606434, 0.1413033307, 0.0813357234, 0.2571644187, -0.2698343694, -0.0759849250, -0.2027730644, 0.0647816956, 0.0059137642, 0.0339962840, -0.1365556419, 0.0126069784, -0.1854518056, -0.1877742559, -0.0911761224, -0.0772609711, -0.0861436427, -0.0787867308, 0.0089621842, 0.1080498695, 0.1800513566, 0.0591635704, -0.1005284935, -0.2593601644, 0.2441447377, 0.1427446604, -0.1497758329, 0.0400924981, 0.2649172544, 0.1373175681, -0.0620697886, 0.1993554831, -0.2380355895, -0.2436577231, -0.1063080430, 0.2540637851, -0.1884770244, 0.1168864071, -0.2586605251, -0.1693846285, 0.1124528348, 0.2624035478, 0.0267128348, -0.0073821247, -0.0582444072, 0.2163461447, 0.0555449426, 0.0179685056, -0.1915784776, 0.0938479900, -0.1208495498, -0.2523052692, -0.1536586583, -0.1700743735, 0.1422887743, -0.1857053936, 0.0962768793, 0.2096748650, -0.1463122666, -0.2402745187, -0.0056766272, 0.1102892160, -0.1620451212, -0.2613784373, 0.2310907841, -0.1248787791, -0.1389731467, -0.2615623176, -0.0855128467, 0.0524350107, 0.1258948445, 0.1942156255, 0.0881043375, -0.2691338658, -0.0185913742, 0.0656369328, -0.2440023720, 0.0478379130, 0.0758408606, 0.1761754751, 0.1018091142, 0.2110077739, 0.2087107599, -0.1401894689, 0.2177066803, 0.0426101685, 0.0433943272, -0.2099524289, 0.2626116276, -0.0908216685, -0.2657653391, 0.2605385780, -0.2577858269, -0.0978016257, -0.2673794627, -0.2700508833, 0.1758409441, -0.0831548721, 0.0166456997, -0.0902414918, 0.2325613499, 0.2504970431, 0.1557816267, -0.0534404963, -0.0857623667, -0.0117142797, 0.1799622178, 0.1446460187, 0.0668534338, -0.2159652561, 0.1037710309, 0.0266942084, -0.2378541827, -0.1160751730, 0.2491002083, -0.2258167863, 0.0061630309, -0.0946645141, 0.1814415455, -0.2498161793, -0.0251806825, -0.0338702053, -0.0815196633, 0.2039212286, -0.1007484794, 0.2332806587, 0.0462332070, 0.2109453678, 0.0111528635, 0.2580588460, -0.0013411939, 0.0865271986, 0.1004736125, 0.1009173691, -0.1591352820, 0.0073770881, -0.2144996673, 0.0482040942, -0.0837276280, 0.2503732443, -0.0686580688, -0.1502005160, -0.0670587867, -0.0920262635, -0.0334258527, 0.2588753700, 0.1400074065, -0.2625085413, 0.1307899058, -0.1150461286, -0.2307481468, -0.0243293196, 0.2020639777, 0.1615089476, -0.2266778946, 0.0187091827, 0.2285389602, -0.2265712917, -0.2058571577, 0.2391896844, 0.2355710864, 0.1489385962, 0.0087901354, -0.0535638779, 0.1088408530, -0.2092566192, 0.0973320603, 0.2622077465, -0.2292175442, -0.0911817402, -0.0613878965, -0.2265529782, 0.1248737574, -0.2437460124, 0.2627278566, -0.2050793767, -0.0764446259, -0.0596047491, -0.1807852089, -0.1410067230, -0.1473745108, -0.0483291447, -0.1002028137, 0.1876896918, 0.0785243809, -0.0092066228, 0.2135058939, 0.2121950984, -0.1978364289, -0.2069327533, 0.0898224115, -0.2149537504, 0.1692785919, 0.1867926121, -0.2344761938, -0.1167916209, 0.2461237311, -0.0945177376, -0.0794435292, 0.1513195038, 0.2015945315, 0.1337394416, 0.1759082973, -0.2532033920, -0.2377877533, -0.0361612290, 0.2224344313, -0.0689395815, -0.0124613047, -0.1836911738, 0.1813642979, -0.2274561971, -0.1487876773, -0.1171800494, -0.1309320927, 0.0191197395, 0.0582459569, -0.2637415230, 0.1467007697, -0.1486459821, 0.1959048212, 0.1298648119, 0.0253218710, 0.2221658230, -0.1159648895, -0.0778379291, 0.1041177511, 0.0929373503, -0.1973722130, 0.2290914059, -0.2137518674, 0.0846611559, 0.0512298942, -0.0631111413, -0.0653742403, -0.1809912622, 0.0005716681, 0.0253303051, -0.0377105325, 0.0210002959, -0.1213872135, 0.0023541749, 0.1568427086, -0.0053336024, -0.1422506571, -0.0634647459, -0.0126285851, 0.1239622831, 0.1143521965, 0.0224393606, -0.0805616379, -0.0499483645, -0.0128456652, -0.1704629958, 0.2599466443, -0.1518650651, -0.2200198323, 0.0736521184, -0.0661161691, 0.0946218967, -0.2385393530, -0.2611993551, -0.1332013905, 0.0970909894, -0.0337799191, -0.1169045419, -0.0073750913, 0.1452324092, -0.0403126180, -0.0258306414, 0.1182950735, -0.0915844887, 0.1848003268, 0.0772941113, -0.1466980577, -0.0336402208, -0.2639279068, -0.0610949844, -0.2338397205, -0.1177974343, -0.0572336167, 0.0781606436, -0.0001442730, -0.2031815052, 0.1772679687, 0.1728886962, 0.0445411205, 0.0028676689, -0.2140842676, 0.1190173030, -0.1419176757, -0.1465900838, 0.0641090870, -0.0327518433, -0.1213229895, 0.1227703094, -0.0488575399, -0.2224578410, -0.1819356978, -0.0379550904, -0.1620284915, -0.2577472627, -0.2053711414, 0.2608312368, 0.0622260571, -0.2446229905, -0.1667751372, -0.0223288983, 0.1559186578, 0.2539537549, 0.1190081537, 0.0697974563, -0.1451025009, 0.1934573948, 0.2604591846, -0.0113319159, 0.2668653131, -0.2486786544, 0.1137816310, -0.0788240135, -0.0885767490, -0.1215514094, 0.1441069245, 0.1115870774, -0.2066743970, 0.1692949235, -0.1185886413, 0.0660223365, 0.0089178979, 0.0340952277, 0.1092461944, -0.2002933323, 0.2642390132, -0.0920433551, 0.0715298653, -0.0856015831, -0.2172699273, -0.2016251683, -0.2177293152, -0.1220175028, -0.0887747407, 0.1922259033, -0.2351264060, -0.1237735003, 0.0416278839, -0.2411146611, 0.2397703528, 0.0970651805, 0.1191004515, 0.0168026090, -0.0697318763, 0.1905015707, 0.1415730417, 0.1132507324, -0.2347077280, 0.1363304257, 0.1514517963, 0.2632848620, -0.0670248717, -0.1339001060, 0.1368015707, -0.0679487884, 0.2491735220, 0.2546509504, 0.1039273739, -0.2053855360, 0.0270204544, 0.2569044828, 0.2644444108, -0.2418261468, 0.1794675589, -0.0682206899, -0.0353354067, 0.2121336162, -0.0037109554, -0.2482174039, 0.0356158912, -0.2016635388, -0.0843227655, 0.1575547755, -0.1763703227, 0.0120888352, -0.0058333278, 0.2211212814, -0.0944505334, -0.2090143263, 0.0323793292, -0.0438271314, -0.1183651686, 0.1772686839, -0.2652149796, -0.0276551247, -0.0412750989, 0.0166399479, -0.0734533370, -0.0000704825, -0.1468138695, -0.2050628662, 0.1913883388, -0.0971123278, 0.1337860227, -0.0661296397, -0.1619751453, -0.2168533206, 0.2588659525, 0.1729599535, 0.2087532580, 0.0767159462, 0.0245507956, -0.0852898359, -0.2262240648, 0.1216828525, 0.2042625248, -0.2553463280, 0.2188198864, 0.1327611804, 0.2057549953, 0.0868577659, 0.1357881129, -0.1912708431, -0.0162867308, 0.2116867006, -0.0830089897, 0.0105213523, 0.1305772066, 0.2227927446, 0.1487371027, 0.2206472754, -0.2685371041, 0.1399970353, -0.0909520686, 0.0426467359, 0.0113934278, 0.1718047559, 0.2167172432, -0.2194524258, 0.1578555107, -0.2171997726, -0.0740645975, -0.0265429616, 0.2566614151, -0.0438716859, 0.1839224994, 0.2474379539, 0.1326980293, 0.0919316411, 0.1479927301, -0.2357468307, 0.1234658659, 0.0349661112, -0.0336257815, 0.2655663490, -0.0132913888, 0.0978038907, 0.1452631056, -0.1511987746, -0.1577608287, 0.1531017721, -0.2637991607, 0.2020351291, -0.0679898709, 0.1903496385, 0.0440810919, -0.1217416078, 0.0337231755, 0.2298179865, -0.2672689259, 0.2696970105, -0.1050416678, -0.1016740054, 0.1605276167, 0.0830971599, -0.1415940523, -0.0708335936, 0.0598798692, 0.1427949071, 0.1406069994, -0.0031127334, -0.2266243696, -0.0315023065, 0.1917873621, -0.1932274699, 0.1095500886, -0.0665462017, -0.2539892197, -0.2229817808, 0.0097968578, -0.0967051834, 0.0159031153, -0.0623588413, 0.1587591767, 0.0978200138, 0.2338778973, -0.2354301661, 0.2295784950, -0.0156064034, -0.1057349741, -0.0532743633, 0.2056024671, 0.2592932582, 0.0631143749, 0.1404561400, -0.1794645935, -0.1851858497, -0.1010343134, -0.1387683153, 0.2066210210, 0.2687329054, 0.2672661543, -0.2285919040, 0.2536915541, 0.1732944846, 0.0140429735, 0.1798013747, 0.1011034548, -0.1231439263, -0.2090131640, -0.2358000875, -0.1335241199, -0.0136682093, 0.1625811160, 0.0201680064, 0.0507371128, 0.2669139504, 0.1281464100, 0.0652450025, -0.1418910474, -0.1728491485, -0.1630705595, -0.0965032578, -0.0684011281, -0.0429361016, 0.0414636731, 0.1688670814, 0.0149793923, -0.1873976141, 0.0564199984, 0.1735568345, 0.2358481288, -0.0973014235, 0.2351770997, -0.1544558406, 0.2613958716, -0.1203913242, 0.2443797588, 0.1984318197, 0.0608667433, 0.1717488468, 0.2102108598, 0.2221113145, -0.0573794395, -0.2324080467, 0.1895039380, 0.0566318929, 0.1811642945, -0.1635302007, 0.2402427793, -0.0177964866, 0.0143831670, -0.0054359436, -0.2147738189, 0.2214331925, 0.1292351186, -0.1769979596, 0.2491378188, 0.0289342105, 0.1371908188, 0.1504884660, 0.2063704431, 0.2388316989, 0.1589519978, -0.2079519928, -0.0619894862, 0.2703382969, -0.1894038469, -0.2202722430, 0.0915799737, 0.2097881138, 0.2279261351, -0.0113336444, -0.2115896344, 0.0891429484, 0.0915619731, -0.1760782897, 0.1056386232, -0.0085526109, 0.1366427243, 0.2488539219, 0.0777187347, -0.0346788168, -0.2704874873, -0.2062012255, 0.1232177615, 0.2391705513, 0.1742358804, -0.0510053933, -0.0004617572, 0.2101727426, 0.0928274393, 0.1585570574, 0.0783992708, 0.1779555976, 0.0282858014, -0.2140619457, 0.1337300539, 0.0803500414, -0.1530098617, 0.2343374491, 0.0972188711, -0.1038047075, 0.2305861115, 0.1472746134, -0.1706782728, 0.2449318767, -0.0976014435, -0.0748280585, 0.1059319973, -0.2010653615, 0.0995190442, 0.1718562841, -0.1885482967, 0.1769584119, 0.0633007586, -0.0770387352, 0.0041958094, -0.1021788567, -0.1882752329, 0.2418994904, 0.2228894830, -0.2645479143, 0.0796536505, 0.2674754858, -0.2477646023, -0.2380546927, 0.1310586333, -0.0856482834, -0.2358918041, -0.2036657631, -0.2387729436, -0.2467685789, 0.0776993334, 0.1686656475, 0.1668980420, 0.1800931394, 0.1129432321, -0.1551136672, 0.2165140808, 0.0844896138, -0.0665956736, 0.1870425344, 0.1916256249, -0.0180040300, -0.2478219420, -0.1537213326, -0.1357355565, -0.2246436179, -0.1835559309, 0.0812616944, 0.1632705331, -0.2332825065, -0.0519669056, -0.2055894434, 0.1128097177, -0.1383400261, 0.2345337868, 0.0545215309, 0.2331774235, -0.1894662082, -0.0427657068, 0.2058122158, -0.2314060330, -0.1259599328, -0.1991586536, -0.1142637134, 0.0009544790, -0.0209319890, -0.0057229400, -0.1906089485, 0.1331424415, 0.0259979367, -0.1726314276, 0.0834575295, -0.0741867572, 0.1907427013, -0.1842057556, 0.0402868688, -0.0591218919, 0.2358341217, -0.2308090329, -0.1318113208, 0.0186145306, -0.2421502173, -0.0518433452, 0.0762951374, -0.1571553648, -0.2663490772, 0.2641273141, -0.1647519320, 0.1743421555, -0.2658058405, 0.1557786465, -0.1301724464, 0.1622814238, -0.0479839295, 0.2278240621, -0.2210573256, -0.2643130422, 0.1802541018, -0.0160991848, 0.0684682727, 0.2605313063, 0.1236070991, -0.1653124392, 0.1936793625, 0.1121359169, 0.2638253570, -0.2641008496, -0.2418642640, -0.0835215747, -0.1184795201, 0.1481862664, 0.1989969015, -0.0156640410, 0.1023332477, -0.2295598090, -0.2419257760, -0.0206762105, 0.2571136951, 0.1920043230, 0.2172411680, 0.1568602026, -0.1786376834, -0.1078437418, 0.0625322461, 0.0974819958, -0.1817824543, -0.1324546337, -0.1123243570, 0.1175158024, 0.0211526752, -0.2681282759, -0.1982115805, 0.0203338861, 0.0437735915, 0.1325307488, 0.1342954338, -0.0834230930, -0.1777758002, -0.1217060685, -0.0681662560, 0.2058151662, 0.0630723834, 0.2347291112, 0.1295822859, -0.1195771098, -0.2349271178, -0.0610226244, -0.2010223567, -0.0384639353, 0.2045951188, -0.0170700550, -0.1405900419, 0.0226147771, 0.1869677603, 0.1647060215, -0.2553109229, -0.2260594815, -0.2249769717, 0.0994159877, 0.2098891735, -0.1985160410, 0.0692430139, -0.1450836807, -0.2055268884, -0.1735200584, 0.1962410808, -0.2326660156, -0.2282149494, -0.0115409791, 0.1830602288, 0.1820551157, 0.0071968436, -0.2355111092, -0.1093429923, 0.2260884941, -0.1135479659, -0.1986206472, 0.0888916850, 0.1693372726, -0.2306329608, 0.1149185598, 0.1544711888, 0.2009721100, -0.1604098529, 0.2127300501, -0.1438922435, 0.0496620834, -0.1321417838, -0.1078022122, -0.1940544546, -0.0224048644, -0.0194376409, -0.0838659108, -0.2132579237, 0.1268180013, 0.1648243666, 0.0800932944, -0.0692241788, -0.0533102304, -0.1156979501, -0.1800022125, -0.1152554750, 0.2419866920, -0.1586177945, 0.0428486466, -0.0276938975, -0.1226879656, -0.0219354928, -0.1803016365, 0.2198798656, 0.2169816494, -0.0569174737, -0.2366416603, -0.0335757285, -0.1928807646, -0.1712920517, 0.2112834156, -0.2239207178, -0.0260740370, -0.2009176910, -0.2366741002, 0.0098936558, 0.0618851483, 0.1135364175, 0.1370653808, -0.2372834235, 0.0326939821, 0.2561540008, 0.2694992423, -0.0128024518, 0.1535338759, 0.2402248979, -0.2520424426, 0.2635807991, -0.2199886739, 0.1186615825, -0.2518640757, -0.2378146499, -0.2523558736, 0.1844336689, -0.0193241835, -0.0622818321, 0.0865511000, 0.0811429620, -0.1875028014, 0.1325671077, -0.0219385922, -0.0160287023, 0.0794710815, -0.2700691223, -0.0229168683, 0.1444141865, 0.1129874587, 0.0740654469, 0.1716811955, -0.0957344472, 0.2656518817, 0.2645530105, -0.1460941434, -0.2030957937, -0.2494919002, -0.0770298392, -0.2055089027, -0.0305614173, -0.2319914252, 0.0233612955, -0.1152850091, -0.2417520434, 0.2502071261, 0.2047371268, 0.0222362876, 0.1327203512, -0.1144805253, -0.1041495502, 0.1630043983, 0.0618094206, 0.1134250462, -0.1689071804, 0.0184963644, -0.2315564305, -0.1968245506, 0.1461381912, 0.0854588747, -0.0990231037, -0.0898729861, 0.0004253983, 0.0357593298, 0.2611446977, -0.1093040407, -0.0775504112, 0.2312201858, -0.1899854392, 0.0928814411, 0.2616287470, -0.2086122036, 0.2159269452, 0.0905790627, 0.0927817822, 0.1152563691, -0.1740594208, 0.2224403620, -0.0568516403, -0.2627646327, -0.1109364778, -0.0888308585, -0.1946563125, -0.2353600562, -0.0710394531, 0.0077551603, 0.0006017089, -0.1357426494, 0.1382044554, -0.2504751086, -0.0768980831, -0.0748052299, -0.0866699666, -0.0342416763, -0.1316139847, 0.0269064307, -0.1804011464, 0.2650696635, 0.1549187005, -0.2244163454, 0.1613153815, 0.1725347638, 0.2200012505, 0.2516394258, 0.0933911204, 0.1417428255, 0.1719299555, 0.1880736351, 0.1947664618, -0.1956961751, -0.2640622258, 0.2459523678, -0.2268458307, 0.1412332058, -0.1417535394, 0.0227784812, -0.2682472765, 0.0644283891, 0.0955594182, -0.2423197627, -0.1083503962, -0.1159017533, 0.0658503175, -0.1411388069, -0.0312868953, -0.1038857698, 0.0559235215, -0.0704652816, -0.1340601742, -0.2062051594, 0.1354731321, 0.0554044843, 0.0896193981, 0.2178599238, -0.1850095987, -0.1651033461, 0.1921651065, -0.0366173834, -0.0485495925, 0.0014694631, 0.0382448435, -0.0838079304, 0.2054792941, 0.2661623359, -0.1842240691, -0.0694618374, 0.0126902461, 0.0067563057, -0.1001626849, 0.1995334029, -0.1380506456, 0.1485045552, 0.0358910859, -0.0626856238, -0.2091107368, 0.0468305349, 0.0103357434, -0.2290842384, 0.1990656555, 0.2631925941, -0.2103043646, 0.2676152587, -0.0854294002, 0.0689530671, 0.1392923295, 0.2033374906, -0.0018697083, 0.0256687105, 0.0806336701, 0.0370436311, -0.1781670153, -0.0932077020, 0.1773622632, 0.1163150072, 0.2281659245, -0.0850840360, -0.1808031350, -0.1398387700, -0.2358213067, 0.1313538849, -0.0741845518, -0.1937260628, -0.1641172618, -0.1134337485, 0.1831127405, -0.1740811467, 0.0675717592, 0.2292472124, 0.0258870125, -0.1414439827, -0.0892648250, -0.0680215359, -0.2279043496, -0.1906512678, 0.2051949501, 0.0897773504, -0.1383388638, 0.0238176286, 0.0276612043, -0.0173469782, -0.2598193288, -0.0220381618, -0.2196464241, -0.0751354396, -0.1824251860, -0.2391217798, 0.2183819115, -0.2231987864, -0.0843698531, -0.1054971814, 0.1301209927, -0.2465840727, -0.0691753626, 0.0092066228, 0.0825371742, -0.1876880229, 0.1850483418, 0.0755373538, -0.2344151884, -0.0482313782, 0.2461878657, 0.2360902429, 0.2184434533, -0.1923866868, -0.1018229276, -0.2571129799, -0.1374113262, -0.0906423777, 0.1601406038, -0.1478691101, 0.1116002202, -0.2485214174, -0.1017573327, 0.0440327227, 0.2584793568, 0.1815155745, 0.0222624540, -0.0480987132, 0.2568126321, 0.1202301681, 0.2668836117, -0.2495588511, -0.0042070448, -0.2453591675, -0.0416506380, -0.1062536836, -0.2152713835, 0.2155571580, 0.2253797948, 0.0955153108, -0.2313311547, 0.1183562577, -0.1479295343, -0.2403010279, -0.1585542858, -0.0767650902, 0.2277829647, -0.0779376328, -0.0937037766, -0.1434559524, -0.0555443764, 0.1468944252, 0.0904761255, -0.0258367658, 0.0067935586, -0.2445378602, 0.2657743096, 0.2110844553, -0.1452361941, -0.2026147991, 0.1790833771, -0.0410037786, -0.0045531094, 0.1988045871, -0.1647759229, -0.2488618195, 0.1331536770, -0.2338991761, 0.0273973644, -0.2687591612, 0.1091116667, 0.1945029497, 0.1798706949, 0.1951413453, 0.2160873413, 0.1718218625, 0.0026405156, 0.1144935489, 0.0232334137, 0.1663033664, 0.1097613573, -0.0424188077, -0.0034509897, -0.1258736998, 0.2578428984, 0.0807462633, -0.1628643721, 0.2538388371, 0.2522639036, 0.1857980192, -0.0399513245, -0.1482723653, 0.1793850660, 0.1302375197, 0.0702834129, 0.0115408003, -0.0682756305, 0.2675212622, 0.0068870187, 0.2215493321, 0.1337441504, 0.1232658923, 0.1494961977, -0.0274508893, 0.2298863530, -0.1477126479, 0.2199024558, -0.0047423840, -0.0914682746, -0.1415937990, -0.1504017860, -0.0791536421, 0.2610607743, 0.1595385075, 0.0345665216, 0.1332083642, -0.2080372572, -0.0595280081, 0.0691776872, 0.1174888313, -0.2157279253, -0.0109761655, -0.1562471986, -0.0996057391, 0.0891088247, -0.2242892236, -0.0495561808, -0.1468046010};

#endif

#endif
