//Numpy array shape [25, 5]
//Min -0.445422619581
//Max 0.445150077343
//Number of zeros 0

#ifndef W37_H_
#define W37_H_

#ifndef __SYNTHESIS__
model_default_t w37[125];
#else
model_default_t w37[125] = {-0.4454226196, -0.4406587780, -0.2222236693, -0.2315133959, 0.1345770359, 0.3448460698, 0.1406856179, -0.0964628756, -0.0812382400, -0.2691826820, -0.2949919105, 0.4243316650, 0.3177831173, 0.0088516176, 0.3248656988, 0.4050125480, -0.0337327421, 0.3321452737, 0.3364363313, -0.3380602300, 0.2832043767, -0.0242522657, 0.2052826285, 0.4064589143, 0.0081590712, -0.2487695366, -0.3858001828, 0.0554386377, 0.1201201677, 0.0711343288, 0.0617510080, -0.3700345159, 0.0558208823, -0.3867697120, -0.0211616755, 0.3561763763, -0.1330480278, 0.4309446812, 0.2180936933, -0.0181048810, -0.0925463438, 0.3232111335, 0.3851397634, 0.2348898649, -0.3670881987, 0.3362903595, -0.1921101511, -0.2359041721, 0.2736350298, 0.4397695065, -0.0632562041, -0.2404343039, 0.2592178583, 0.3843308091, -0.3637241125, 0.0249858499, -0.1318162084, 0.4320549369, -0.0226930082, -0.1689099371, 0.3930723667, 0.1064915061, 0.2946082950, 0.4273747206, 0.4169943929, 0.3540853858, 0.2956818938, 0.1970351338, 0.2080521584, -0.1521394849, -0.2038774043, 0.2992437482, -0.0980696976, -0.3427889049, -0.3429659009, -0.3492839932, -0.2260610610, -0.2158556581, -0.1067955792, -0.2695727348, -0.1920028031, -0.3804298341, -0.4404809177, 0.0890296698, -0.1594791710, -0.1891638339, 0.4451500773, 0.0347222090, 0.3957155943, 0.4445517063, -0.3628713191, 0.1961703897, 0.4034704566, -0.1720705032, 0.0657166243, -0.2206926495, -0.2060957104, 0.2089083791, -0.4402353764, 0.0626840591, -0.3926816881, 0.0275470614, 0.0033819973, -0.3814424574, -0.4110277295, -0.3423000276, 0.1524870992, 0.3326994777, -0.3663641214, -0.2986375690, 0.3294283748, -0.1182910502, 0.4234707355, 0.2716497779, 0.2811783552, 0.1728035212, 0.3603569269, -0.0113227367, 0.1149486899, -0.3478292227, 0.4214486480, 0.1924528480, 0.1309588552, -0.2984637022, -0.2193636894};

#endif

#endif
