//Numpy array shape [845, 1]
//Min -0.125000000000
//Max 0.125000000000
//Number of zeros 351

#ifndef W9_H_
#define W9_H_

#ifndef __SYNTHESIS__
weight9_t w9[845];
#else
weight9_t w9[845] = {0.0000, 0.0625, -0.0625, 0.1250, 0.0000, -0.0625, 0.0000, -0.0625, -0.0625, 0.0000, 0.0000, -0.0625, 0.0625, 0.0000, 0.1250, -0.0625, -0.0625, 0.0000, -0.0625, -0.0625, 0.0625, 0.0000, 0.0000, -0.0625, -0.0625, -0.1250, 0.0000, 0.0000, 0.0000, 0.0000, 0.0000, 0.0000, 0.0625, 0.0000, 0.0000, -0.1250, 0.0000, -0.0625, -0.0625, -0.0625, 0.0625, 0.0000, 0.0625, 0.0000, 0.0625, 0.0625, 0.0625, 0.0000, 0.0625, 0.0625, 0.0625, 0.0000, -0.0625, -0.0625, -0.0625, -0.0625, -0.0625, -0.0625, 0.0000, 0.0000, -0.0625, 0.0000, 0.1250, 0.0625, 0.0625, 0.0000, 0.0000, -0.0625, -0.0625, -0.0625, 0.0625, -0.0625, 0.0000, 0.0000, 0.0000, 0.0625, 0.0000, 0.0625, 0.0000, 0.0625, 0.0625, -0.0625, -0.0625, 0.0625, 0.1250, 0.0625, -0.0625, 0.0000, -0.0625, 0.0000, -0.0625, 0.1250, -0.0625, -0.0625, 0.0000, 0.0000, 0.0000, -0.0625, 0.0000, 0.0000, -0.0625, -0.1250, -0.0625, 0.0000, 0.0625, 0.0000, 0.0000, -0.0625, 0.0000, 0.0625, 0.0000, -0.0625, 0.0625, 0.0625, 0.0000, -0.0625, 0.0625, 0.0000, 0.0000, 0.0625, 0.0000, 0.0000, 0.0000, 0.0000, 0.0000, 0.0000, 0.0000, 0.0625, 0.0625, -0.0625, -0.0625, -0.0625, 0.0625, -0.0625, -0.0625, 0.0625, 0.0625, 0.0000, 0.0000, -0.0625, 0.0000, 0.0000, 0.0625, -0.0625, 0.0625, 0.0000, 0.0625, 0.0000, 0.0625, 0.0000, 0.0625, 0.0000, 0.0625, -0.0625, 0.0000, -0.0625, -0.0625, -0.0625, 0.0625, 0.0000, 0.0000, 0.0000, 0.0000, 0.0000, 0.0625, -0.0625, 0.0000, 0.0625, -0.0625, 0.0000, 0.0000, 0.0000, 0.0625, 0.0625, -0.0625, 0.0000, 0.0000, -0.0625, 0.0000, 0.0000, -0.0625, 0.0625, -0.0625, -0.0625, 0.0625, 0.0000, 0.0625, 0.0000, -0.0625, 0.0625, 0.0000, -0.1250, 0.0000, -0.0625, 0.0000, -0.0625, 0.0625, -0.0625, 0.0000, 0.0625, 0.0000, -0.0625, -0.0625, 0.0625, -0.0625, -0.0625, 0.0000, -0.0625, 0.0625, 0.0625, -0.0625, 0.0625, 0.0625, -0.0625, 0.0000, 0.0000, 0.0000, 0.0000, 0.0625, 0.0625, 0.0000, -0.0625, -0.0625, 0.0000, 0.0000, 0.0000, 0.0000, 0.0000, 0.0625, 0.0000, -0.0625, 0.0625, 0.0000, -0.0625, 0.0625, 0.0000, 0.0000, 0.0000, 0.0625, 0.0625, 0.0000, -0.0625, 0.0625, -0.0625, -0.0625, 0.1250, 0.0625, 0.0625, 0.0000, 0.0000, 0.0625, 0.0625, -0.0625, 0.0000, 0.0625, -0.0625, 0.0000, 0.0625, 0.0000, -0.0625, -0.0625, 0.0000, 0.0000, 0.0000, 0.0625, 0.0000, 0.0625, 0.0625, 0.0625, 0.0625, 0.0000, -0.0625, -0.0625, 0.0625, -0.0625, -0.0625, 0.0000, -0.0625, 0.0000, -0.0625, 0.0625, 0.0000, 0.0625, 0.0000, 0.0000, 0.0625, 0.0625, 0.0625, 0.0625, 0.0625, -0.0625, 0.0000, -0.0625, 0.0625, -0.0625, 0.0625, 0.0625, 0.0000, 0.0000, 0.0625, 0.1250, 0.0625, 0.0000, 0.0000, 0.0000, -0.0625, 0.0000, 0.0000, 0.0000, 0.0000, 0.0000, 0.0625, 0.0000, 0.0625, 0.0625, 0.0625, 0.0625, 0.0625, -0.0625, 0.0000, 0.0000, 0.0625, 0.0625, 0.0000, 0.0000, 0.0000, -0.0625, 0.0000, 0.0625, 0.0625, 0.0625, 0.0000, -0.0625, -0.0625, 0.0625, 0.0625, 0.0000, -0.0625, 0.0625, -0.0625, 0.0000, 0.0625, 0.0000, 0.0000, 0.0625, 0.0000, 0.0000, 0.0000, 0.0625, 0.0000, 0.0000, 0.0000, -0.0625, 0.0625, 0.0000, -0.0625, 0.0000, -0.0625, -0.0625, 0.1250, -0.0625, -0.0625, 0.0000, 0.0000, 0.0000, 0.0000, 0.0000, 0.0000, -0.1250, 0.0625, 0.0000, -0.0625, 0.0625, 0.0625, -0.0625, -0.0625, 0.0000, -0.1250, 0.0625, 0.0625, 0.0000, 0.0000, -0.0625, -0.0625, 0.0625, 0.0000, -0.0625, 0.0625, -0.0625, 0.0625, 0.0625, 0.0000, 0.0625, 0.0000, -0.0625, -0.0625, 0.0000, 0.0625, 0.0000, 0.0000, 0.0000, -0.1250, 0.0625, -0.0625, 0.0625, -0.0625, 0.0625, 0.0625, 0.0000, 0.0000, 0.0000, 0.0000, -0.0625, -0.0625, 0.0000, 0.0000, 0.0625, 0.0000, 0.0000, 0.0000, 0.0000, -0.0625, 0.0000, 0.0000, 0.0625, 0.0000, 0.0000, 0.0000, 0.0625, -0.0625, -0.0625, 0.0625, 0.0000, 0.0625, -0.0625, -0.0625, 0.0625, 0.0000, -0.0625, -0.0625, 0.0000, 0.0000, 0.0000, 0.0000, 0.0625, 0.0625, 0.0000, 0.1250, 0.0000, -0.0625, -0.0625, 0.0625, 0.0000, 0.0000, 0.0000, -0.0625, 0.0000, -0.0625, 0.0000, -0.0625, -0.0625, -0.0625, 0.0000, 0.1250, 0.0000, 0.0000, 0.0625, 0.0000, -0.0625, 0.0000, 0.0000, 0.0000, 0.0000, 0.0000, 0.1250, 0.0625, 0.0000, 0.0625, -0.0625, -0.0625, 0.0000, 0.0000, 0.0000, -0.0625, 0.0625, 0.0000, 0.0000, 0.0000, 0.0000, -0.0625, 0.0000, -0.0625, -0.0625, 0.0000, -0.0625, 0.0000, 0.0625, 0.0625, 0.0000, 0.0000, 0.0625, -0.0625, -0.0625, 0.0625, 0.0000, -0.0625, 0.0000, 0.0000, -0.0625, -0.0625, -0.0625, 0.0000, 0.0000, -0.0625, 0.0625, -0.1250, -0.0625, -0.0625, -0.0625, -0.0625, 0.0000, 0.0625, 0.0625, -0.0625, -0.0625, 0.0000, 0.0000, 0.0625, 0.0000, 0.0625, 0.0000, 0.0000, 0.0000, -0.1250, -0.0625, 0.0000, -0.0625, 0.0625, -0.0625, 0.0625, 0.0000, 0.0625, -0.0625, -0.0625, -0.0625, -0.0625, 0.0000, -0.1250, 0.0000, 0.0625, 0.0000, 0.0625, -0.0625, 0.0625, 0.0625, 0.0625, 0.0625, 0.0625, 0.0000, 0.0000, -0.0625, 0.0000, 0.0625, 0.0625, 0.1250, 0.0625, 0.0000, 0.0000, 0.0000, 0.0000, 0.0000, -0.1250, 0.0000, 0.1250, 0.0000, 0.0625, 0.0000, -0.0625, 0.0625, 0.0625, 0.1250, 0.0625, 0.0000, 0.0000, -0.0625, 0.0000, 0.0625, -0.0625, 0.0000, -0.0625, -0.0625, 0.0625, 0.0000, 0.0000, -0.0625, -0.0625, 0.0625, -0.0625, 0.0625, 0.0625, -0.1250, 0.0000, -0.0625, -0.0625, 0.0625, -0.0625, 0.0000, 0.0000, 0.0000, 0.0625, 0.0000, -0.0625, 0.0625, 0.0000, 0.0000, -0.0625, -0.0625, 0.0625, 0.0000, 0.0625, -0.0625, 0.0625, 0.0625, -0.0625, -0.0625, -0.0625, 0.0625, 0.0000, -0.0625, 0.0000, 0.0625, 0.0000, 0.0000, 0.0625, 0.0000, 0.0000, 0.0000, -0.1250, 0.1250, 0.0625, -0.0625, 0.0625, 0.0000, 0.0625, 0.0625, 0.0000, 0.0000, 0.0625, 0.0000, 0.0000, 0.0000, 0.0625, -0.0625, 0.0000, 0.0625, 0.1250, 0.0625, 0.0000, 0.0000, 0.0000, 0.0000, -0.1250, 0.0000, -0.0625, -0.0625, 0.0000, -0.0625, -0.0625, 0.0625, -0.1250, 0.0000, 0.0000, -0.0625, 0.0625, 0.0625, -0.0625, 0.0000, -0.0625, 0.0625, 0.0625, 0.0000, 0.0000, -0.0625, 0.0000, 0.0000, -0.0625, 0.0625, 0.0000, -0.1250, 0.0000, 0.0000, -0.0625, -0.0625, 0.0625, 0.0000, -0.0625, 0.0625, 0.0000, -0.0625, 0.0625, 0.0625, 0.0625, 0.0625, 0.0000, 0.0000, 0.0000, 0.1250, 0.0000, 0.0000, 0.0625, 0.0625, 0.0000, 0.0625, 0.0000, 0.0000, -0.0625, 0.0000, 0.0625, 0.0625, -0.0625, 0.0000, -0.0625, -0.0625, 0.0000, 0.0625, -0.0625, 0.0625, 0.0000, 0.0000, 0.0000, 0.0000, 0.0000, 0.0625, -0.1250, -0.0625, 0.0625, 0.0000, -0.0625, 0.0625, 0.0625, -0.0625, 0.0000, -0.0625, 0.0625, -0.0625, -0.0625, 0.0000, 0.0000, 0.0625, 0.0000, -0.0625, 0.0625, -0.0625, -0.0625, 0.0625, -0.0625, 0.0625, -0.0625, -0.0625, 0.0625, 0.0000, -0.0625, 0.0000, 0.0000, 0.0625, 0.0625, 0.0000, 0.0625, -0.0625, -0.0625, 0.0000, 0.0625, -0.0625, 0.0000, 0.0000, 0.0625, 0.0000, 0.0000, 0.0000, 0.0625, 0.0625, 0.0000, 0.0625, 0.0000, 0.0000, -0.0625, 0.0000, 0.0625, 0.1250, -0.0625, 0.0000, 0.0000, 0.0000, -0.0625, 0.0000, 0.0000, 0.0000, 0.0625, 0.0000, 0.0625, -0.0625, -0.0625, 0.0000, 0.0000, -0.0625, 0.0625, 0.0625, 0.0625, 0.0000, -0.0625, 0.0000, 0.0000, 0.0000, -0.0625, 0.0625, -0.0625, 0.0000, -0.0625, 0.0000, -0.0625, -0.0625, 0.0000, 0.0000, 0.0000, 0.0000, -0.0625, 0.0000, 0.0625, 0.0000, 0.0625, 0.0000, 0.0000, 0.0000, 0.0000, -0.1250, 0.0000, 0.0625, 0.0625, 0.0000, 0.0625, 0.0000, 0.0625, 0.0000, -0.0625, -0.0625};

#endif

#endif
